tree
version=v4
num_class=1
num_tree_per_iteration=1
label_index=0
max_feature_idx=41
objective=binary sigmoid:1
feature_names=gold__aircraft_age_months calendar_year gold__temperature_range platinum__chemical_dominance gold__humidity_stability gold__avg_temperature gold__atm_corrosion_avg_24m gold__avg_sea_salt_exposure gold__chem_aggr_max_24m gold__avg_parking_hours platinum__accelerated_aging_index gold__long_parking_frequency gold__salt_exposure_avg_24m gold__critical_exposure_last_24m gold__critical_time_cumulative gold__chem_aggr_max_12m gold__dose_acceleration metar_relative_humidity__last_12_mean gold__critical_exposure_last_12m total_parking_minutes__last_12_mean platinum__aggressivity_streak sci__combustion_plume_index sci__marine_industrial_sulfate sea_salt_aerosol_003_05_mixing_ratio__last_12_mean total_parking_minutes__last_6_mean gold__humidity_volatility_12m bronze__parking_hours sci__formaldehyde_oxidation gold__chem_aggr_max_6m sci__dust_moisture_trap bronze__organic_matter_total total_parking_minutes__delta_lag1 sci__biogenic_voc sci__sulfate_chloride_interaction sci__multi_pollutant_dose bronze__nitrogen_compounds gold__salt_exposure_avg_6m sci__hno3_corrosivity gold__exposure_acceleration_ratio sci__no2_particle_corrosion sci__hno3_wet_film sci__hydrophilic_water_retention
feature_infos=[1:128] [2014:2026] [0:41.981929779052734] [0.65074139833450317:4.5684590339660645] [0:40.684707641601562] [-16.453889846801758:35.7784423828125] [0.23755389451980591:2.1667687892913818] [0.0037607224658131599:2.1996779441833496] [0.74108457565307617:3.4121007919311523] [1.0613888502120972:730.06463623046875] [2.1313665854449937e-07:5.7988018989562988] [0:1] [0.26080730557441711:6.9864449501037598] [0:16467.09375] [0:47587.2734375] [0.57439959049224854:3.4121007919311523] [0.028372514992952347:0.99999988079071045] [6.6123809814453125:96.153656005859375] [0:8617.375] [63.683334350585938:43920] [0:119] [0.085157394409179688:2.2554967403411865] [0.0014560973504558206:11.774530410766602] [3.7678028557384946e-13:8.0221079779008164e-10] [63.683334350585938:44160] [0:40.684707641601562] [0.017500000074505806:744] [0.050022326409816742:4.0504322052001953] [0.57439959049224854:3.4121007919311523] [8.7522465037181973e-05:2.8959205150604248] [2.3672594440249384e-10:4.2208498030049668e-07] [-44078.56640625:44455.1328125] [9.9999928894344448e-17:5.4062252044677734] [0.0015533361583948135:17.164922714233398] [0.040541712194681168:2.829216480255127] [1.0266786032442354e-10:2.6503283834244939e-07] [0.26080730557441711:6.9864449501037598] [0.0042073908261954784:4.7070150375366211] [0:1] [5.2783798309974372e-06:7.3166694641113281] [0.00021548219956457615:1.7620123624801636] [0.01492778304964304:3.230210542678833]
tree_sizes=3450 3444 3468 3472 3468 3475 3470 3462 3447 3464 3456 3473 3466 3465 3458 3460 3487 3453 3456 3459 3466 3457 3460 3470 3463 3458 3470 3466 3464 3475 3459 3475 3465 3467 3471 3463 3468 3472 3470 3476 3464 3443 3485 3474 3469 3467 3467 3465 3472 3459 3477 3456 3475 3458 3456 3472 3463 3458 3468 3473 3463 3476 3464 3472 3477 3469 3478 3464 3480 3488 3473 3469 3471 3472 3480 3484 3482 3480 3470 3470 3471 3484 3478 3472 3467 3478 3487 3464 3485 3482 3482 3473 3476 3476 3471 3471 3481 3469 3469 3475 3487 3468 3484 3478 3468 3474 3480 3479 3487 3476 3484 3480 3471 3475 3473 3488 3492 3474 3458 3492 3484 3469 3475 3493 3458 3475 3486 3493 3468 3494 3478 3456 3486 3484 3486 3501 3483 3490 3471 3478 3471 3475 3477 3484 3492 3489 3472 3491 3493 3477 3481 3490 3486 3483 3490 3467 3480 3463 3472 3489 3483 3486 3484 3488 3494 3466 3485 3484 3475 3478 3472 3487 3497 3490 3473 3486 3472 3475 3501 3487 3483 3473 3488 3485 3484 3471 3470 3487 3478 3481 3495 3490 3483 3513 3467 3480 3473 3462 3474 3483 3504 3474 3485 3485 3493 3457 3496 3498 3494 3474 3483 3474 3477 3475 3488 3499 3486 3492 3481 3488 3493 3481 3505 3487 3485 3461 3474 3484 3477 3476 3484 3465 3483 3489 3481 3483 3480 3504 3482 3474 3486 3462 3493 3493 3504 3481 3474 3506 3460 3497 3497 3483 3492 3472 3471 3496 3474 3510 3470 3485 3495 3506 3493 3479 3459 3506 3497 3485 3471 3484 3489 3482 3464 3483 3480 3502 3478 3486 3504 3500 3491 3492 3481 3497 3467 3461 3482 3499 3492 3488 3448 3485 3485 3481 3465 3499 3488 3492 3478 3482 3498 3470 3503 3469 3505 3493

Tree=0
num_leaves=31
num_cat=0
split_feature=0 1 10 0 1 4 14 7 16 6 5 1 8 1 15 2 23 4 5 3 7 5 5 8 6 8 13 3 7 3
split_gain=12636.2 2542.23 1006.65 528.434 492.774 338.776 328.398 214.378 212.827 169.632 157.017 152.442 151.224 128.26 125.451 169.579 117.741 115.839 97.4771 97.1368 157.637 94.1649 154.368 117.972 90.8698 89.4411 76.0844 110.176 71.5864 75.7485
threshold=64.500000000000014 2021.5000000000002 3.8210906982421879 71.500000000000014 2023.5000000000002 5.9814541339874276 14626.481933593752 0.61533415317535411 0.27520242333412176 1.4490115046501162 11.959416389465334 2024.5000000000002 1.7003283500671389 2023.5000000000002 2.5626407861709599 18.809862136840824 1.946333372249143e-10 5.3303520679473886 19.947079658508304 1.3887156248092654 0.40802571177482611 17.98114109039307 21.178883552551273 2.087654829025269 1.5422633290290835 2.0705891847610478 987.21194458007824 1.374014735221863 0.64003446698188793 1.3828575611114504
decision_type=2 2 2 2 2 10 2 2 2 2 10 2 2 2 2 10 2 10 10 2 2 10 10 2 2 2 2 2 2 2
left_child=1 2 8 24 6 9 12 13 14 -4 16 17 -3 25 19 18 -8 -6 -16 20 -1 23 -23 -14 26 -5 -2 -28 29 -19
right_child=3 4 5 7 11 -7 10 -9 -10 -11 -12 -13 21 -15 15 -17 -18 28 -20 -21 -22 22 -24 -25 -26 -27 27 -29 -30 -31
leaf_value=0.01827823098819378 0.02790540523874268 0.014337563344457196 -0.012894001903906273 0.018598417009153576 0.014218904477589738 -0.016599949852526899 -0.015810039065421728 0.027040840942488854 -0.028850831887072603 0.022218087628902972 0.0081434971390296589 0.019390620426365506 -0.010963301982740788 0.022442758295237588 -0.028903153929730675 -0.027229072855830174 0.025028019499272462 0.015458003662055965 0.0035998515283470873 -0.026651279155844081 -0.02010456957902931 0.010233993874678897 -0.013595306173176572 -0.025426607481788495 0.024812816717087457 0.0064550970833017213 0.012301552322147092 -0.00025881812118392792 -0.011230181906715994 -0.0045975768070040494
leaf_weight=24.246462807059288 37.545856162905693 45.859012842178345 37.725653097033501 324.23603899776936 163.75851379334927 118.18523314595222 120.46969576179981 1640.7592255324125 1496.5964643955231 158.88399815559387 379.52463488280773 226.88873684406281 295.43504530191422 1020.1325120180845 23.815186232328415 91.055234983563423 17.498902916908264 75.852580845355988 131.49651996791363 724.44802583754063 707.05070024728775 85.805195987224579 207.34931541979313 226.21426728367805 74.300949186086655 239.02609433233738 316.4422003030777 310.36778943240643 107.0424372702837 93.812869563698769
leaf_count=72 92 147 178 969 528 580 586 4156 8329 443 1350 668 1358 2838 134 500 45 239 500 3946 3600 295 983 1218 196 872 1054 1246 494 399
internal_value=0.000139674 -0.0144488 -0.0221872 0.0206038 -0.00115179 0.00339034 -0.00627547 0.0232264 -0.0247055 0.0154406 0.00316014 0.00941949 -0.01195 0.0192601 -0.0210471 -0.0110708 -0.0104944 0.00425062 -0.00148745 -0.0227264 -0.0188093 -0.0134458 -0.00660149 -0.0172704 0.0091399 0.0134671 0.00735481 0.00608505 -0.00166188 0.00438157
internal_weight=9521.83 5559.01 3513.5 3962.81 2045.51 314.795 1378.16 3224.15 3198.71 196.61 517.493 667.355 860.663 1583.39 1702.11 246.367 137.969 440.466 155.312 1455.75 731.297 814.804 293.155 521.649 738.657 563.262 664.356 626.81 276.708 169.665
internal_count=38015 26592 18282 11423 8310 1201 5982 8835 17081 621 1981 2328 4001 4679 8752 1134 631 1660 634 7618 3672 3854 1278 2576 2588 1841 2392 2300 1132 638
is_linear=0
shrinkage=1


Tree=1
num_leaves=31
num_cat=0
split_feature=16 1 10 16 1 11 6 7 1 10 14 25 1 26 14 8 5 8 14 6 18 11 3 15 24 2 14 3 3 36
split_gain=11827.3 2335.49 1006.23 521.356 478.926 321.762 299.343 253.947 242.509 196.617 166.325 155.268 121.138 105.758 104.597 186.751 117.552 102.028 92.5917 91.7636 151.114 126.35 83.2313 76.6002 76.3292 75.9451 71.1281 68.5308 66.3895 67.5079
threshold=0.095863986760377898 2021.5000000000002 3.8210906982421879 0.08596356958150865 2023.5000000000002 0.48689930140972143 1.4490115046501162 0.61533415317535411 2023.5000000000002 3.0266301631927495 19373.774414062504 5.7065658569335946 2024.5000000000002 652.86334228515636 15098.270507812502 2.0062851905822758 11.959416389465334 2.1878037452697758 3763.1840820312505 1.4350117444992068 3771.9423828125005 0.44101834297180181 1.1398237943649294 2.82244884967804 26745.513671875004 11.040534973144533 20870.522460937504 2.3086640834808354 1.5670273900032046 4.3709011077880868
decision_type=2 2 2 2 2 2 2 2 2 2 2 10 2 2 2 2 10 2 2 2 2 2 2 2 2 8 2 2 2 2
left_child=3 2 9 7 5 23 -4 8 13 -2 18 -8 25 27 15 -7 17 -16 -5 -11 21 -21 -22 28 -12 -6 -9 -1 29 -3
right_child=1 4 6 10 12 14 11 26 -10 19 24 -13 -14 -15 16 -17 -18 -19 -20 20 22 -23 -24 -25 -26 -27 -28 -29 -30 -31
leaf_value=0.012881663811091109 -0.027311628440878217 -0.0056328072945153471 -0.018495628843803128 0.025717195710101413 0.016899292524199468 0.0087577628561530119 0.020007084239828256 0.016819782250565334 0.021868874187396796 -0.022158302231237853 -0.0032415513042080156 -0.012806794445134093 0.018882671016505672 -0.0097873157555474072 -0.021560154976432315 -0.011875509393640231 0.0096121434357959151 0.013306334346574609 -0.0014771214120817499 -0.027055691881588961 0.014270150413044674 0.0080895429426538473 -0.023529451463779778 0.0094287205788238411 0.017456117497780615 0.001264300056865999 0.026725318082688975 -0.016390533876651379 -0.0269703402886774 -0.01966436061135609
leaf_weight=571.97761605679989 2018.1288416981697 130.50676615536213 91.137848049402237 29.825683012604713 89.377807468175888 140.76930515468121 172.64853273332119 190.67314025759697 1040.0003699064255 833.34620733559132 45.281206339597702 39.210221916437149 207.34995324909687 54.194128915667534 57.876916885375977 324.90534153580666 287.30427598953247 27.087185189127922 349.82799896597862 29.096199855208397 13.487148031592367 99.205387860536575 184.15547834336758 24.00824411213398 320.04984782636166 313.89248919487 1517.0440626442432 17.832103177905083 126.8523755967617 193.62690223753452
leaf_count=1882 11108 563 458 76 274 496 500 585 2908 4351 189 185 613 246 301 1513 997 88 1427 161 43 354 976 83 973 1233 3837 88 696 984
internal_value=-3.96257e-05 -0.0146512 -0.0219808 0.0190466 -0.00138404 -0.00648883 0.00411903 0.0215427 0.0173865 -0.0244711 0.00766723 0.0138945 0.00958135 0.0101251 -0.000890373 -0.0056275 0.00502667 -0.010389 0.00070097 -0.0195081 -0.0126854 0 -0.0208878 -0.0163407 0.0148811 0.00476354 0.0256295 0.0119706 -0.0177335 -0.0140518
internal_weight=9540.68 5403.97 3480.42 4136.71 1923.56 1312.94 302.997 3391.72 1684 3177.42 744.985 211.859 610.62 644.004 837.943 465.675 372.268 84.9641 379.654 1159.29 325.944 128.302 197.643 474.994 365.331 403.27 1707.72 589.81 450.986 324.134
internal_count=38188 25977 18136 12211 7841 5721 1143 9546 5124 16993 2665 685 2120 2216 3395 2009 1386 389 1503 5885 1534 515 1019 2326 1162 1507 4422 1970 2243 1547
is_linear=0
shrinkage=0.015


Tree=2
num_leaves=31
num_cat=0
split_feature=0 14 4 0 0 6 7 33 5 7 8 3 7 0 19 6 5 2 17 4 4 9 5 6 14 3 0 4 27 2
split_gain=11937 1391.9 526.756 498.061 245.517 226.185 193.387 176.264 163.193 149.922 131.174 148.497 209.674 128.095 116.864 116.49 99.7299 147.717 125.219 96.8931 94.1621 90.5841 90.2443 82.635 84.6091 110.327 81.5319 74.1687 72.6695 69.3979
threshold=64.500000000000014 12788.442382812502 4.4333424568176278 71.500000000000014 29.500000000000004 1.5422633290290835 0.61785250902175914 1.0845029950141909 27.225736618041996 0.60208329558372509 2.8808969259262089 1.4224450588226321 0.4045324325561524 46.500000000000007 31665.165039062504 1.4662277698516848 14.751837253570558 16.757367134094242 77.64941787719728 6.6370527744293222 18.043400764465336 624.40789794921886 19.779337882995609 1.5422633290290835 6230.1083984375009 1.3765755295753481 56.500000000000007 8.6141724586486834 2.4020940065383916 23.949309349060062
decision_type=2 2 10 2 2 2 2 2 10 2 2 2 2 2 2 2 10 10 10 10 10 2 10 2 2 2 2 8 2 10
left_child=1 4 8 23 7 13 20 9 -3 14 11 12 -6 -4 27 26 18 -18 -15 -7 21 28 -12 24 -2 -26 -13 -1 -5 -14
right_child=3 2 5 6 10 19 -8 -9 -10 -11 22 15 29 16 -16 -17 17 -19 -20 -21 -22 -23 -24 -25 25 -27 -28 -29 -30 -31
leaf_value=0.013486396370818202 0.027503837740406684 0.018068504378006771 -0.017695691634021751 0.020044354823552088 0.020971281216652995 0.020046433658944481 0.026078165161652817 -0.023668047779536718 -0.025191308593351384 -0.020537688884210269 -0.02340691673770208 -0.023107111957602965 -0.010270483105382524 0.0050767781817669735 -0.017610515599692945 0.002099188208229743 0.00049309985914803808 -0.018068403190868856 -0.011216125375623047 -0.011740319983351174 -0.0090498631049727406 -0.0067231544058111064 0.0062051881379775482 0.023577944201540198 0.011689502554269151 -0.00096301137822825346 -0.010669484346966894 -0.014828216612506466 -0.007494990083374474 -0.026999644527142663
leaf_weight=86.034468650817871 41.738169983029366 293.77521292865276 265.42338488996029 1516.9137336164713 45.577136561274529 94.361754298210144 1626.5568317323923 2009.8049914240837 20.278169021010399 257.02310764789581 28.637642472982407 664.91338841617107 479.37490417063236 287.14876720309258 72.154793962836266 52.566243603825569 153.6318776756525 256.88536198437214 167.2448740452528 27.194379851222038 26.503305301070213 29.322522893548012 107.70098794996738 75.156782925128937 320.55372034013271 298.66241213679314 148.03894509375095 26.568972930312157 21.328878164291382 63.214969500899315
leaf_count=280 102 883 1324 4374 129 272 4140 10699 110 1325 153 3517 2195 1069 361 204 611 1284 774 127 119 128 395 201 1072 1209 681 129 94 349
internal_value=-6.74655e-05 -0.0141435 -0.00213388 0.0198794 -0.0187946 -0.00649385 0.0224244 -0.0217779 0.0152088 -0.0131447 -0.0141844 -0.0155032 -0.0096566 -0.00858765 -0.00279977 -0.0194602 -0.00577534 -0.0111272 -0.000922597 0.0128804 0.0186831 0.0191583 -9.31569e-05 0.00872825 0.00700871 0.00558869 -0.0208586 0.00672159 0.0196569 -0.0122619
internal_weight=9564.29 5607.55 1565.94 3956.74 4041.61 1251.89 3220.63 2451.59 314.053 441.781 1590.02 1453.69 588.167 1130.33 184.758 865.519 864.911 410.517 454.394 121.556 1594.07 1567.57 136.339 736.111 660.954 619.216 812.952 112.603 1538.24 542.59
internal_count=38310 26871 6454 11439 20417 5461 8855 12794 993 2095 7623 7075 2673 5062 770 4402 3738 1895 1843 399 4715 4596 548 2584 2383 2281 4198 409 4468 2544
is_linear=0
shrinkage=0.015


Tree=3
num_leaves=31
num_cat=0
split_feature=0 1 10 0 1 12 4 5 7 15 16 1 6 5 20 5 14 4 9 6 13 7 1 5 35 32 19 6 0 25
split_gain=11618.8 2164.23 954.245 705.104 517.326 366.951 248.557 200.514 191.155 184.214 168.112 134.914 126.112 120.514 141.104 118.302 105.605 102.745 100.591 93.5817 92.4145 104.452 97.2024 91.0472 78.9855 78.2355 77.4331 74.4553 66.8893 58.8283
threshold=62.500000000000007 2021.5000000000002 3.7490442991256718 71.500000000000014 2024.5000000000002 5.161802053451539 5.6137995719909677 14.075241565704347 0.61785250902175914 2.0475699901580815 0.27520242333412176 2023.5000000000002 1.5422633290290835 13.907869815826418 38.500000000000007 7.3321502208709726 15710.075195312502 4.3790819644927987 504.16744995117193 1.4350117444992068 987.21194458007824 0.59923055768013012 2023.5000000000002 16.625007629394535 4.7722783946824172e-08 2.9748308658599858 27629.687500000004 1.6299881339073183 47.500000000000007 7.3009235858917245
decision_type=2 2 2 2 2 2 10 10 2 2 2 2 2 10 2 10 2 10 2 2 2 2 2 10 2 2 2 2 2 10
left_child=1 2 10 12 6 -4 13 -7 11 15 17 24 20 -3 27 -8 23 19 -17 -1 -2 22 -22 -11 -5 -19 -23 -15 -27 -18
right_child=3 4 5 8 -6 7 9 -9 -10 16 -12 -13 -14 14 -16 18 29 25 -20 -21 21 26 -24 -25 -26 28 -28 -29 -30 -31
leaf_value=-0.017907837043094676 0.025814376734709179 0.020836163911211611 -0.016445994829152353 0.014242749917579204 0.019971115689265351 -0.014148711338782607 -0.019973509569721902 0.021325849104535863 0.025829183119792074 -0.025432182563037337 -0.027778441377732825 0.021732637243997072 0.023535729305215893 5.2996000925333505e-05 0.028050042112946177 -0.0071294412523720332 -0.010626472729987083 -0.022762512591556476 0.0066656080731814357 0.0078109418528263946 -0.0080838131024098935 -0.0032376330837587952 0.0080596613526518809 -0.011316376149777497 -0.006538250907155806 -0.015999941803895579 0.012294155713133286 -0.026515838700646329 0.01293224512205292 0.0075323353467269399
leaf_weight=81.751528292894363 46.922931328415871 80.979270055890083 151.26004168391228 533.94855539500713 221.18052905797958 44.585890784859657 71.524041742086411 171.13634949922562 1626.1807596534491 203.19109998643398 1505.4516660273075 1046.5265735089779 97.099873766303062 386.06942476332188 38.864565417170525 211.38107135891914 114.40877908468246 1389.6948657929897 269.72769969701767 51.02463860809803 215.01542814075947 90.016643732786179 136.43056839704514 214.26175405085087 43.925099387764931 64.49480676651001 353.09789551794529 24.47087199985981 24.019575074315071 60.728359952569008
leaf_count=411 119 231 746 1705 639 214 367 481 4132 1103 8396 2902 259 1545 94 932 526 7352 982 183 955 375 484 995 191 318 1169 135 79 217
internal_value=0.000142174 -0.0144412 -0.0214602 0.0188718 -0.00154583 0.00140778 -0.00439604 0.0139549 0.0221788 -0.00832665 -0.0241537 0.0185116 0.00740629 0.00408518 0.00102846 -0.00208529 -0.0141315 -0.0207524 0.000596584 -0.0080143 0.00552095 0.00429398 -0.00180436 -0.0182298 0.0126511 -0.0218896 0.00913204 -0.00157188 -0.0080697 -0.00430728
internal_weight=9569.37 5380.21 3483.42 4189.16 1896.79 366.982 1675.61 215.722 3250.58 1145.22 3116.44 1624.4 938.583 530.384 449.405 552.633 592.59 1610.99 481.109 132.776 841.483 794.561 351.446 417.453 577.874 1478.21 443.115 410.54 88.5144 175.137
internal_count=38237 25946 18180 12291 7766 1441 7127 695 8930 5122 16739 4798 3361 2005 1774 2281 2841 8343 1914 594 3102 2983 1439 2098 1896 7749 1544 1680 397 743
is_linear=0
shrinkage=0.015


Tree=4
num_leaves=31
num_cat=0
split_feature=0 14 0 4 6 0 7 33 23 32 0 8 3 7 11 7 4 6 4 4 6 9 5 17 11 4 16 27 3 17
split_gain=11262.9 1316.9 505.894 501.474 227.952 216.525 196.465 182.261 171.137 156.078 136.527 121.978 161.812 134.414 96.5074 104.34 96.1495 93.7125 90.3602 89.6619 86.8624 86.1329 85.4596 78.4397 77.7944 74.836 164.637 74.3399 74.2474 69.77
threshold=64.500000000000014 12788.442382812502 70.500000000000014 4.3212180137634286 1.5365856885910036 34.500000000000007 0.61533415317535411 1.0487790703773501 7.0914340372096886e-11 2.6998037099838261 46.500000000000007 2.8808969259262089 1.4186939001083376 0.45908845961093908 0.83405795693397533 0.61268872022628795 6.6992292404174814 1.4930993914604189 18.043400764465336 8.6141724586486834 1.5422633290290835 624.40789794921886 19.779337882995609 76.880439758300795 0.13373984396457675 4.2760841846466073 0.29818031191825872 2.4020940065383916 2.3086640834808354 80.640304565429702
decision_type=2 2 2 10 2 2 2 2 2 2 2 2 2 2 2 2 10 2 10 8 2 2 10 10 2 8 2 2 2 10
left_child=1 5 20 9 10 7 18 8 19 -3 -5 12 13 -7 15 -12 -6 24 21 29 -2 27 -13 -15 -14 26 -9 28 -4 -1
right_child=2 3 6 4 16 11 -8 25 -10 -11 14 22 17 23 -16 -17 -18 -19 -20 -21 -22 -23 -24 -25 -26 -27 -28 -29 -30 -31
leaf_value=0.012281814156303042 0.0048791608605670911 0.021199331020056028 0.019863904232476762 -0.017857704960675933 0.018526666199338442 0.011677006315550941 0.02526129546203135 -0.0022200975145602051 -0.018277441697585054 -0.0062551061502199596 -0.012675845879671545 -0.023351707640025331 -0.010359991180054774 -0.015271131952117186 -0.028108420546186532 -0.00089566586537038269 -0.012197140496295064 0.012804649780490354 -0.0078439506778087455 -0.019171251528345919 0.023156510191162497 -0.0059388420407379345 0.0093969204910468972 0.0025447568910903343 -0.02227603547804034 -0.023493350149008423 -0.022570921615311455 -0.0085740875543807004 0.00028661169609214371 -0.01751341019536275
leaf_weight=99.828039214015007 548.64749978482723 233.55083520710468 1514.4243302345276 258.12927651405334 108.84011577069759 74.351808488368988 1704.9494180679321 128.65748608112335 324.72770263254642 57.56614875793457 237.38743987679482 21.910802334547043 165.17035333812237 219.97052286565304 39.490062773227692 586.55621641874313 28.250541046261787 20.246098428964615 29.429527521133423 37.824035242199898 64.970433339476585 31.472615495324135 84.144122093915939 73.682376310229301 526.2450353205204 1922.795498251915 296.66538429260254 21.259947597980499 45.222758054733276 20.648794531822205
leaf_count=332 2037 656 4342 1298 321 250 4359 534 1644 250 1120 118 765 1073 221 2382 133 66 130 194 173 136 294 286 2775 10301 1576 95 178 104
internal_value=5.15319e-05 -0.0137039 0.0193856 -0.0019546 -0.00606115 -0.018235 0.0216815 -0.020493 -0.012056 0.0157579 -0.0082956 -0.0128307 -0.014338 -0.00623183 -0.00541959 -0.00430231 0.0121396 -0.0185139 0.0179516 0.000715158 0.0068469 0.018428 0.00247885 -0.0107959 -0.019449 -0.0222226 -0.0164377 0.0189177 0.0192986 0.00706857
internal_weight=9527.02 5566.64 3960.38 1549.77 1258.65 4016.87 3346.76 2831.15 483.029 291.117 1121.56 1185.72 1079.67 368.005 863.434 823.944 137.091 711.661 1641.81 158.301 613.618 1612.38 106.055 293.653 691.415 2348.12 425.323 1580.91 1559.65 120.477
internal_count=38143 26693 11450 6381 5475 20312 9240 14685 2274 906 5021 5627 5215 1609 3723 3502 454 3606 4881 630 2210 4751 412 1359 3540 12411 2110 4615 4520 436
is_linear=0
shrinkage=0.015


Tree=5
num_leaves=31
num_cat=0
split_feature=16 14 16 6 4 7 4 16 28 14 16 4 9 8 8 7 4 14 27 6 26 33 33 32 2 2 17 6 2 2
split_gain=10330 1254.85 469.507 425.882 221.263 199.258 172.723 156.886 178.301 151.51 136.841 114.995 109.796 97.4007 97.5628 86.0307 83.7763 83.4741 83.1918 81.3943 80.8777 117.081 79.3938 76.5546 72.8749 72.3535 70.1982 68.2838 61.9462 60.1203
threshold=0.095863986760377898 12163.140625000002 0.082855299115180983 1.5237852334976199 5.8199148178100595 0.59071302413940441 4.3790819644927987 0.20246019214391711 1.6730771064758303 19698.540039062504 0.11481712758541109 18.450851440429691 624.40789794921886 2.9021897315979008 1.7003283500671389 0.60208329558372509 6.9190971851348886 3763.1840820312505 2.4020940065383916 1.4391205906867983 574.52581787109386 1.0394129753112795 1.6498098373413088 2.5147043466567998 12.342096328735353 17.777225494384769 77.907680511474624 1.0962738394737246 19.575540542602543 10.800449848175051
decision_type=2 2 2 2 10 2 10 2 2 2 2 10 2 2 2 2 8 2 2 2 2 2 2 2 10 10 10 2 10 10
left_child=2 7 5 6 24 11 23 13 28 17 22 12 18 14 -2 -11 20 -4 -1 -16 21 -10 26 -3 -5 -24 -8 -12 -9 -7
right_child=1 3 9 4 -6 29 10 8 16 15 27 -13 -14 -15 19 -17 -18 -19 -20 -21 -22 -23 25 -25 -26 -27 -28 -29 -30 -31
leaf_value=0.018250785862081117 0.025505324020582868 0.015700054360454598 0.023883318750921124 0.0020643658245270108 -0.0078716938250339343 0.0064163098507164229 0.0069240360806003881 -0.013109441762174876 0.0025234122916437084 -0.00083182413885629083 0.015595203141374239 -0.014683333393041996 -0.014470842334102738 -0.0011959495440240851 -0.017376965248785754 0.017452606094418781 -0.024901771079661548 0.0014733352550885775 -0.0096739709032876292 -0.0048419808094933179 -0.0236761633257325 -0.017755928841837017 0.00039073685013015928 -0.0052694887212677514 0.023499563063754891 -0.015952428243396124 -0.0090067543465112681 -0.014865651378471753 0.0041466826359527042 0.024820988700458919
leaf_weight=1405.150426864624 12.142102181911467 101.61207775771618 39.822766825556755 43.887166485190392 88.443358406424522 42.099715560674667 200.14636091887951 142.87319917976856 71.629523038864136 66.801888167858124 16.359816655516624 25.153873160481453 23.488971441984177 117.10832561552525 1063.8646376729012 415.7986191213131 1120.4504446834326 479.24793909490108 23.814906373620033 132.49902766942978 487.62841908633709 571.83184386789799 100.28578241169453 62.6428132802248 201.9555377215147 153.06246626377106 89.284886971116066 543.91740830242634 68.624485448002815 1577.9788226634264
leaf_count=4138 30 316 104 169 394 150 725 684 279 268 51 121 113 480 5340 1245 6119 1872 108 571 2630 2893 400 269 538 751 404 2647 262 4051
internal_value=-0.000128187 -0.0137757 0.0178154 -0.0026404 0.0123981 0.020703 -0.00661487 -0.0184807 -0.0207273 0.00887305 -0.00875291 0.0166936 0.0172469 -0.0142942 -0.0155593 0.0149183 -0.0219652 0.00323249 0.0177781 -0.0159954 -0.019038 -0.0154935 -0.00337024 0.00769783 0.0197043 -0.00949045 0.00198803 -0.0139499 -0.0075017 0.024348
internal_weight=9489.61 5390.25 4099.36 1601.6 334.286 3097.69 1267.31 3788.65 2463.04 1001.67 1103.06 1477.61 1452.45 1325.61 1208.51 482.601 2251.54 519.071 1428.97 1196.36 1131.09 643.461 542.779 164.255 245.843 253.348 289.431 560.277 211.498 1620.08
internal_count=38122 25952 12170 6664 1101 8681 5563 19288 12867 3489 4978 4480 4359 6421 5941 1513 11921 1976 4246 5911 5802 3172 2280 585 707 1151 1129 2698 946 4201
is_linear=0
shrinkage=0.015


Tree=6
num_leaves=31
num_cat=0
split_feature=16 1 10 16 1 12 9 7 13 1 16 14 4 1 6 16 8 4 7 1 3 10 2 8 35 12 5 1 3 2
split_gain=10159.5 2138.44 915.368 449.82 418.18 335.778 269.584 195.922 183.703 183.559 177.682 171.081 148.467 119.202 111.792 99.2005 126.768 86.881 86.0149 84.9383 89.1543 80.6964 78.5011 77.6893 73.6011 71.4542 71.1864 67.0678 61.2464 61.1551
threshold=0.095863986760377898 2021.5000000000002 3.811833500862122 0.082225751131773009 2023.5000000000002 5.161802053451539 525.25418090820324 0.61533415317535411 8346.7480468750018 2023.5000000000002 0.27520242333412176 19698.540039062504 4.4333424568176278 2024.5000000000002 1.4371470212936404 0.14815749228000644 1.7212210297584536 18.450851440429691 0.59327471256256115 2023.5000000000002 2.1307735443115239 2.83942723274231 11.705178737640383 2.9021897315979008 5.6442265972123102e-08 5.506622552871705 12.198722362518312 2019.5000000000002 1.5495303273200991 5.7757425308227548
decision_type=2 2 2 2 2 2 2 2 2 2 2 2 10 2 2 2 2 10 2 2 2 2 10 2 2 2 10 2 2 10
left_child=3 2 10 7 6 -4 29 9 -7 17 12 19 14 21 -2 25 -17 22 -13 20 28 -6 -1 -14 -24 26 -8 -25 -5 -3
right_child=1 4 5 11 13 8 15 -9 -10 -11 -12 18 23 -15 -16 16 -18 -19 -20 -21 -22 -23 24 27 -26 -27 -28 -29 -30 -31
leaf_value=-0.012011629941917372 -0.016729573579687244 0.00085792703385540684 -0.016624187187850609 -0.00078983347757739049 0.014419566568870104 0.023233753264888749 -0.0097871142664055881 0.024522342182023961 -0.011319097123730202 0.020818996643687655 -0.026745057873097434 0.00044869109054677665 -0.022073291111974598 0.018352977705336643 0.0088116701808472198 0.023954943004085304 -0.012707462282367129 -0.01755337534277716 0.018045557620270516 0.010028402480612078 0.015712450426773675 2.348596806300468e-05 0.014373547158560518 -0.020834409541306876 -0.0063053642612533817 0.02109853789617374 0.0049440825263437705 0.00039735362265424709 -0.017024238976489383 -0.01495378387682952
leaf_weight=29.839540898799896 86.940784275531769 61.082485362887383 113.29193420708179 174.47253023087978 126.60745178163052 155.62360955774784 90.547824203968048 1511.9504124671221 43.799877017736435 996.78867796063423 1494.0668629556894 73.445552378892899 1366.0751182287931 213.55699630081654 67.941845744848251 23.24667401611805 180.06469194591045 23.649518072605133 434.22000975906849 239.36514496803284 52.326161250472069 281.81404495239258 480.10923910140991 64.169091448187828 41.465070873498917 48.518444404006004 382.46095594763756 68.436327323317528 74.176864936947823 517.54853500425816
leaf_count=138 434 244 563 704 410 416 414 3884 203 2778 8361 289 7257 635 240 61 856 118 1281 818 162 1129 1516 336 180 135 1430 276 367 2527
internal_value=7.59728e-05 -0.0134969 -0.0205461 0.0177681 -0.000823466 0.00391302 -0.00565304 0.0206544 0.0156149 0.0169214 -0.0229775 0.00926277 -0.0195602 0.00928723 -0.00551851 0.000439743 -0.00842332 0.0101407 0.0155104 0.00337316 -0.00192235 0.00451295 0.0113576 -0.0210056 0.0127167 0.00390826 0.002106 -0.00991775 -0.00568396 -0.0132806
internal_weight=9517.6 5385.79 3460.35 4131.81 1925.45 312.715 1303.47 3083.8 199.423 1571.85 3147.63 1048.01 1653.56 621.978 154.883 724.839 203.311 575.063 507.666 540.341 300.976 408.421 551.414 1498.68 521.574 521.527 473.009 132.605 248.649 578.631
internal_count=38162 25927 18086 12235 7841 1182 5667 8614 619 4730 16904 3621 8543 2174 674 2896 917 1952 1570 2051 1233 1539 1834 7869 1696 1979 1844 612 1071 2771
is_linear=0
shrinkage=0.015


Tree=7
num_leaves=31
num_cat=0
split_feature=0 1 10 0 1 12 11 16 7 6 32 1 1 13 6 10 8 13 8 16 12 7 1 6 15 8 9 8 11 2
split_gain=10250.4 2018.58 871.854 582.284 459.458 287.458 274.373 201.795 173.991 157.294 138.752 136.109 117.01 111.16 107.223 92.3126 91.7524 90.713 90.5563 133.136 100.836 89.4455 110.677 77.5511 75.6495 71.0082 70.0103 64.8679 62.5345 62.355
threshold=63.500000000000007 2021.5000000000002 3.8210906982421879 71.500000000000014 2023.5000000000002 5.161802053451539 0.48689930140972143 0.2169119939208031 0.61785250902175914 1.4350117444992068 0.18812783807516101 2024.5000000000002 2023.5000000000002 8624.7988281250018 1.5422633290290835 2.7167494297027592 2.0705891847610478 987.21194458007824 1.7212210297584536 0.14815749228000644 5.506622552871705 0.60764348506927501 2023.5000000000002 1.3228253722190859 2.8983005285263066 2.9541907310485844 487.10548400878912 2.1247351169586186 0.76961538195610057 16.341403961181644
decision_type=2 2 2 2 2 2 2 2 2 2 2 2 2 2 2 2 2 2 2 2 2 2 2 2 2 2 2 2 2 10
left_child=1 2 7 14 6 -4 24 9 12 25 -7 15 16 -11 17 -6 -5 -2 -8 20 -20 22 -19 -21 -3 27 -23 -1 -18 -27
right_child=3 4 5 8 11 10 18 -9 -10 13 -12 -13 -14 -15 -16 -17 28 21 19 23 -22 26 -24 -25 -26 29 -28 -29 -30 -31
leaf_value=-0.017938902823589613 0.025564944330236501 -0.016496550522185391 -0.015293320116431756 0.017061927288507635 0.015588238072425178 -0.01532485469835718 0.021668067634857326 -0.025622402393845691 0.024542502583262425 0.0026108327918844786 0.020532163558958892 0.018752819878660097 0.020524868555478006 -0.022451474296948892 0.022580301342667412 -0.00017445107889179726 0.0073326389255038539 -0.0090918633195891507 -0.00025426563476100981 -4.9234793474164151e-05 0.021036990978750759 -0.009436394749576995 0.0089215134208938066 -0.017938932889589615 0.011365161621003022 0.0026546992451302984 0.010903409550182715 -0.025624274564606898 -0.018360881022034196 -0.027258748417654691
leaf_weight=634.72130487859249 44.99119333922863 466.04194936156273 107.33129732310772 330.56932470202446 114.4492664039135 27.786089554429054 36.853377044200897 1905.5611126869917 1593.5533965080976 128.77484481036663 163.74399071931839 219.80292972922325 1021.4410720616579 56.651585400104523 87.674353778362274 302.97390475869179 212.36653564870358 196.33670990169048 510.90975211560726 85.306467071175575 54.652154639363289 42.080984711647034 124.7929879128933 151.9727403819561 22.339857071638107 54.416163191199303 340.51655791699886 425.74036508798599 22.861820414662361 21.080037832260132
leaf_count=3237 113 2322 527 990 362 136 102 10593 4072 504 460 646 2851 302 234 1218 753 883 2059 348 152 189 434 768 75 212 1142 2353 115 119
internal_value=-0.00010814 -0.0134288 -0.0202176 0.0180983 -0.00124476 0.00427376 -0.00626906 -0.0224873 0.021027 -0.0179512 0.0152725 0.00921665 0.017485 -0.00509366 0.00694755 0.00416175 0.0119704 0.00509082 -0.00106188 -0.00212954 0.00182469 0.00375005 -0.00207766 -0.0115416 -0.0151994 -0.0200422 0.00864344 -0.0210441 0.00476901 -0.00585665
internal_weight=9508.29 5491.11 3525.81 4017.18 1965.3 298.861 1328.08 3226.95 3180.79 1321.38 191.53 637.226 1587.24 185.426 836.393 417.423 565.798 748.718 839.694 802.841 565.562 703.727 321.13 237.279 488.382 1135.96 382.598 1060.46 235.228 75.4962
internal_count=38271 26495 18443 11776 8052 1123 5826 17320 8781 6727 596 2226 4709 806 2995 1580 1858 2761 3429 3327 2211 2648 1317 1116 2397 5921 1331 5590 868 331
is_linear=0
shrinkage=0.015


Tree=8
num_leaves=31
num_cat=0
split_feature=0 1 0 6 1 0 4 3 5 6 14 6 18 12 12 2 9 1 5 5 5 20 8 8 17 4 3 4 6 9
split_gain=9877.12 2234.85 594.253 640.685 423.147 357.659 205.165 261.665 280.272 192.962 163.987 195.014 242.011 138.573 128.923 120.08 225.708 116.687 110.518 131.721 103.741 123.342 90.4126 89.6437 81.89 81.6569 72.3939 66.5676 68.7625 60.2067
threshold=65.500000000000014 2021.5000000000002 44.500000000000007 1.4930993914604189 2024.5000000000002 71.500000000000014 5.6137995719909677 1.3808933496475222 12.318314552307131 1.1617749929428103 6513.5351562500009 1.4371470212936404 3784.7775878906255 4.666438341140748 5.0216438770294198 16.253170013427738 567.95800781250011 2023.5000000000002 17.98114109039307 20.843095779418949 13.854707241058351 36.500000000000007 2.1017322540283208 2.0187002420425419 81.601085662841811 6.7693116664886483 1.1398237943649294 10.512204647064211 0.99589693546295177 299.38667297363287
decision_type=2 2 2 2 2 2 10 2 10 2 2 2 2 2 2 10 2 2 10 10 10 2 2 2 10 10 2 10 2 2
left_child=1 2 10 15 6 -2 20 8 9 -8 -1 -12 -13 17 -10 16 -4 22 23 -20 -3 24 -7 -9 -22 -5 -14 28 -24 -17
right_child=5 4 3 25 -6 13 7 18 14 -11 11 12 26 -15 -16 29 -18 -19 19 -21 21 -23 27 -25 -26 -27 -28 -29 -30 -31
leaf_value=-0.025726567105665354 0.008393998283006035 0.020613588518028574 -0.024712268097145239 0.024525170623677487 0.018250202079079968 0.016968006052867485 0.028512622104352126 -0.0094618816355250667 0.012187197624191935 -0.014519801276253831 -0.022441074478945177 0.007736161293742356 0.01330427212797133 0.024315148802931012 -0.008997054106487986 0.0064375750365318332 0.015753799130975597 0.020762673928809254 0.01378933307752897 -0.01203824327543768 0.0022427095667453922 0.025702772660530056 -0.029149309608258994 -0.023905481533839208 -0.016752043853806221 -0.0075944348093898596 -0.021169269218000289 0.0159140877144213 0.0025919617312053331 -0.020152197286837908
leaf_weight=1744.6837676465511 627.03208242356777 78.857793658971786 54.443258926272392 128.9659478366375 242.11454053223133 383.58047895133495 24.84242656826973 170.15780073404312 335.98308698832989 275.0557245016098 753.4952694773674 125.92381207644939 14.144558370113371 1421.6442850381136 79.204003304243088 19.617353931069374 69.881077542901039 1162.9369029849768 62.353314250707626 148.86660262942314 391.24271716177464 44.635369956493378 16.689716145396233 231.10100500285625 57.911155834794044 20.106335297226906 187.62360867857933 77.86684761941433 124.66397194564342 389.35105903446674
leaf_count=9764 2190 224 298 332 715 1146 59 780 1123 1334 4054 454 47 3636 360 74 221 3216 203 704 1523 112 94 1247 288 90 992 239 473 2031
internal_value=0.000124316 -0.0124644 -0.0198348 -0.00725431 -0.000390537 0.0187724 -0.0027739 -0.00601098 0.00015003 -0.0108788 -0.0228686 -0.0182385 -0.00853478 0.0208105 0.0081292 -0.0149406 -0.00198755 0.0179774 -0.0131998 -0.00437639 0.00472329 0.00215031 0.0125786 -0.017819 -0.000225121 0.0201556 -0.0186948 0.00485089 -0.0012776 -0.0188593
internal_weight=9464.98 5650.56 3508.24 682.365 2142.33 3814.41 1900.21 1327.56 715.085 299.898 2825.87 1081.19 327.692 3187.38 415.187 533.293 124.324 1765.74 612.479 211.22 572.647 493.789 602.801 401.259 449.154 149.072 201.768 219.221 141.354 408.968
internal_count=38023 27029 18357 3046 8672 10994 7957 5810 2876 1393 15311 5547 1493 8804 1483 2624 519 5168 2934 907 2147 1923 1952 2027 1811 422 1039 806 567 2105
is_linear=0
shrinkage=0.015


Tree=9
num_leaves=31
num_cat=0
split_feature=16 14 6 14 16 33 9 16 16 2 5 36 2 3 6 3 3 7 9 7 3 5 5 3 7 12 16 21 5 2
split_gain=9269.44 1303.26 438.869 291.343 151.665 147.001 148.869 142.824 136.464 117.972 178.177 100.03 97.6125 89.8189 108.947 85.4241 139.888 84.4946 113.011 81.9554 78.8232 78.5293 174.067 153.114 203.148 80.9399 95.172 77.2109 73.0103 117.447
threshold=0.093020819127559676 11962.314453125002 1.5365856885910036 21215.851562500004 0.21149871498346332 1.1280313134193423 498.32278442382818 0.080657128244638457 0.11945025250315668 33.094526290893562 14.550572395324709 4.4981529712677011 14.324143886566164 1.3765755295753481 1.4371470212936404 1.4930006265640261 1.2091442346572878 0.59624245762825023 624.40789794921886 0.37289768457412725 2.2128834724426274 19.779337882995609 21.178883552551273 1.4018309116363528 0.4045324325561524 5.0738894939422616 0.10759819298982622 1.2214005589485171 7.7913849353790292 24.460179328918461
decision_type=2 2 2 2 2 2 2 2 2 10 10 2 10 2 2 2 2 2 2 2 2 10 10 2 2 2 2 2 10 10
left_child=3 4 8 7 21 6 11 12 13 17 -11 -6 20 -3 -15 16 -4 18 -5 -10 -1 23 -23 24 -2 26 -24 28 29 -14
right_child=1 2 15 9 5 -7 -8 -9 19 10 -12 -13 27 14 -16 -17 -18 -19 -20 -21 -22 22 25 -25 -26 -27 -28 -29 -30 -31
leaf_value=0.0078295726457238961 0.024067728532222714 0.0019584651977966184 0.01559828886705902 0.018301777512630516 0.0092825585224013702 -0.021764178482212043 -0.01904683188703302 0.0069506625846213 0.017470455210990016 -0.031783605245669047 0.024795778943621449 -0.013289024521694609 -0.0044761230351183139 -0.012938949391754882 0.008875043847553275 0.022465091447549899 -0.016558247443861571 0.023433562784946533 -0.010576111933702335 -0.011702869485629264 -0.028692229827254764 0.012104701909182678 0.003419111470799061 -0.020879890453284984 -0.01228861451828581 0.0045467094192268289 -0.018651711698526228 -0.00084759102595530428 0.020440011259095892 0.023340479236742429
leaf_weight=63.079247802495956 37.883456602692604 578.36388099193573 104.80770242214203 563.42314222455025 92.885330229997635 1872.8670637607574 274.50623096525669 595.6054762005806 21.706647634506226 22.901711121201515 25.741338789463043 82.747136533260345 73.27832105755806 233.60838650166988 65.238630890846252 151.56111739575863 41.952891781926155 1639.1232679635286 31.599005281925201 603.20856253802776 15.989968329668043 75.830584526062012 51.332959741353989 586.51659137010574 325.68515321612358 52.880728915333748 287.74510954320431 48.076810508966446 747.86437384784222 62.59086087346077
leaf_count=219 100 2259 323 1635 326 10094 1433 2128 65 130 64 405 304 1114 228 406 208 4262 145 2854 89 256 198 3107 1558 198 1484 192 2084 163
internal_value=-3.84203e-05 -0.0124968 -0.00200798 0.0177101 -0.0175427 -0.0199096 -0.012162 0.0127999 -0.00531101 0.0211587 -0.00186503 -0.00134681 0.0162351 -0.00148817 -0.00815594 0.0145833 0.00634578 0.0216618 0.016751 -0.0106637 0.000192885 -0.0136536 -0.00858524 -0.0161367 -0.00844756 -0.0126122 -0.0153014 0.0175918 0.0185982 0.00837782
internal_weight=9430.6 5541.33 1800.45 3889.27 3740.88 2323.01 450.139 1606.49 1502.13 2282.79 48.643 175.632 1010.88 877.211 298.847 298.322 146.761 2234.15 595.022 624.915 79.0692 1417.87 467.789 950.085 363.569 391.959 339.078 931.81 883.734 135.869
internal_count=38031 26616 7457 11415 19159 12258 2164 5179 6520 6236 194 731 3051 3601 1342 937 531 6042 1780 2919 308 6901 2136 4765 1658 1880 1682 2743 2551 467
is_linear=0
shrinkage=0.015


Tree=10
num_leaves=31
num_cat=0
split_feature=0 1 10 1 0 11 4 16 7 6 0 7 1 4 3 20 7 3 7 0 7 3 41 1 9 1 15 9 4 23
split_gain=9475.76 2072.76 814.264 379.583 346.26 298.625 287.526 206.329 154.943 151.755 141.68 121 114.381 106.152 96.0008 173.13 106.839 167.554 114.899 86.7586 76.0132 86.5501 73.8463 73.3762 72.1362 115.576 71.1063 70.0889 68.2103 79.3771
threshold=65.500000000000014 2021.5000000000002 3.838872075080872 2023.5000000000002 71.500000000000014 0.42916174232959753 5.9814541339874276 0.2169119939208031 0.61785250902175914 1.4350117444992068 49.500000000000007 0.6700345277786256 2024.5000000000002 5.9478881359100351 1.4245110154151919 38.500000000000007 0.70511716604232799 1.272458612918854 1.15439909696579 60.500000000000007 0.60764348506927501 2.1307735443115239 0.85421070456504833 2023.5000000000002 567.95800781250011 2019.5000000000002 2.8510490655899052 271.78492736816412 5.1967670917510995 5.7177072104730448e-11
decision_type=2 2 2 2 2 2 10 2 2 2 2 2 2 10 2 2 2 2 2 2 2 2 2 2 2 2 2 2 10 2
left_child=1 2 7 5 20 26 11 9 12 24 -5 -4 22 -11 16 19 17 -7 -18 -16 21 23 -6 -2 27 -26 -3 -1 -12 -30
right_child=4 3 6 10 8 14 -8 -9 -10 13 28 -13 -14 -15 15 -17 18 -19 -20 -21 -22 -23 -24 -25 25 -27 -28 -29 29 -31
leaf_value=-0.00032450056765369811 -0.0089320335423682118 -0.017096300992329588 -0.018720874377340515 0.01497960209586134 0.016832514116418902 -0.0048585010590368235 -0.015029936726659502 -0.024840410156691008 0.023619487768157827 0.0058828414459545448 0.011481397762635607 0.019749492063392122 0.022875455563158387 -0.016546636268291726 -0.017268626897793807 0.022883290096989844 -0.0078266692989285708 0.015788799965768648 0.01344980381082753 0.0051389977460588624 0.012685759808386791 0.019696777434037676 0.0083349906359272349 0.0084775161691240403 -0.022410793068264868 -0.007877411810435591 0.0087014034582212837 -0.023536563356954126 0.0094637118325787677 -0.0096540698408316868
leaf_weight=31.011707291007042 133.33273768424988 398.65345822274685 19.935139402747154 363.34292441606522 743.76341353356838 142.36869636178017 108.0843643695116 1872.813845872879 1592.5770577043295 100.85014644265175 100.54256977140903 167.72577922046185 504.87085670232773 88.207375586032867 189.38330952823162 34.514985516667366 284.83480879664421 230.54367129504681 70.541168302297592 48.233576506376266 353.28664982318878 50.675779849290848 339.40270909667015 90.837610989809036 234.77304783463478 262.62193316221237 24.949307978153229 621.69802521169186 71.880069941282272 148.05035366117954
leaf_count=131 597 2016 103 1153 2213 612 531 10498 4104 374 333 476 1330 446 958 91 1276 723 227 180 1140 144 1173 316 1268 1199 87 3408 250 671
internal_value=2.68758e-05 -0.0123592 -0.0194224 -0.000600922 0.0182883 -0.0050127 0.0043757 -0.0216151 0.020299 -0.0170901 0.00857719 0.0155848 0.016957 -0.00459176 -0.000536434 -0.00812693 0.00230152 0.00790462 -0.0035742 -0.0127056 0.00808917 0.00215018 0.0141808 -0.001859 -0.0191373 -0.0147682 -0.0155563 -0.02244 0.00128976 -0.00338054
internal_weight=9424.31 5615.56 3507.72 2107.84 3808.75 1424.02 295.745 3211.98 3180.61 1339.16 683.816 187.661 1588.04 189.058 1000.42 272.132 728.288 372.912 355.376 237.617 628.133 274.846 1083.17 224.17 1150.1 497.395 423.603 652.71 320.473 219.93
internal_count=38028 27011 18434 8577 11017 6170 1110 17324 8820 6826 2407 579 4716 820 4067 1229 2838 1335 1503 1138 2197 1057 3386 913 6006 2467 2103 3539 1254 921
is_linear=0
shrinkage=0.015


Tree=11
num_leaves=31
num_cat=0
split_feature=0 14 0 4 32 0 7 2 33 19 0 23 14 14 7 7 5 20 4 9 2 0 4 3 3 4 37 23 3 4
split_gain=9037.22 1047.17 600.523 437.108 173.101 156.74 153.388 127.169 111.001 137.166 124.881 116.039 107.764 126.017 112.468 87.4853 82.1794 81.3182 80.6785 80.5492 73.8127 70.6387 67.665 67.3035 60.3419 106.152 58.4167 109.315 57.8061 55.3711
threshold=62.500000000000007 10682.075195312502 71.500000000000014 4.3212180137634286 2.4418449401855473 44.500000000000007 0.61533415317535411 28.519754409790043 1.0487790703773501 31198.820312500004 27.500000000000004 8.2447850630051902e-11 19373.774414062504 5474.1552734375009 0.59923055768013012 1.1693246364593508 12.959992885589601 7.5000000000000009 18.450851440429691 624.40789794921886 15.268020153045656 47.500000000000007 3.886438369750977 1.3940173387527468 2.3086640834808354 9.0820689201354998 0.2430016025900841 6.2251578891725514e-11 1.3788905143737795 8.6141724586486834
decision_type=2 2 2 10 2 2 2 10 2 2 2 2 2 2 2 2 10 2 10 2 10 2 10 2 2 10 2 2 2 8
left_child=1 8 12 4 -3 -5 18 15 9 11 26 29 13 -2 -14 17 -16 -7 19 24 21 -12 -22 -24 -4 -26 27 -10 -15 -1
right_child=2 3 6 5 -6 7 -8 -9 10 -11 20 -13 14 28 16 -17 -18 -19 -20 -21 22 -23 23 -25 25 -27 -28 -29 -30 -31
leaf_value=0.014455791440319077 0.02411456709046262 0.017380621769236108 0.018025969344254319 -0.014275847244593807 -0.0074144423161436272 -0.0051653464067989187 0.023336592993283233 -0.025557258658841824 0.011932821149778198 -0.018512734908913815 -0.011905409348269478 -0.014049693589174307 -0.0067740669877988172 0.0079899433557864812 0.0046693945736770801 0.0188468037589292 0.019623946245571396 0.0091579956255683388 -0.011667393849739468 -0.0090365771695443322 0.0083058445989699949 0.0067410466035913467 -0.008619132193417053 -0.020062355551771219 0.025749946279496363 -0.02099961510876645 -0.021850403506962199 -0.022460311709326948 -0.0046793066613345534 -0.0094836012490721999
leaf_weight=84.624421805143356 47.585095629096031 260.23616597056389 1477.8452434688807 494.69100533425808 82.951885730028152 887.99004206061363 1576.0832730233669 57.920951396226883 33.484331667423248 238.43259163200855 253.21373720467091 94.341822490096092 63.931627690792084 108.04344855248928 125.31074880063534 39.371955692768097 249.30977694690228 98.262067720293999 21.643873304128647 25.533614456653595 22.081528276205063 54.974757745862007 144.38647775352001 642.0923979729414 18.979885548353195 23.620388686656952 1758.7998250722885 52.096859037876129 315.65902024507523 28.378032982349396
leaf_count=270 123 777 4286 2435 369 3858 4074 323 114 1248 1217 468 278 380 460 113 707 344 100 115 78 202 665 3401 46 121 9593 287 1341 132
internal_value=3.46669e-05 -0.0128048 0.016912 -0.00394589 0.0113754 -0.00728349 0.020018 -0.00408019 -0.0177981 -0.0107717 -0.0188517 -0.00181868 0.00616834 0.00117696 0.0115136 -0.0028454 0.0146502 -0.00372898 0.0166694 0.0170739 -0.0148606 -0.0085607 -0.0172473 -0.0179762 0.0175189 -1.12389e-05 -0.0212591 -0.0089831 -0.00143263 0.00839318
internal_weight=9381.88 5328.33 4053.55 1921.42 343.188 1578.24 3143.71 1083.55 3406.91 445.777 2961.13 207.344 909.84 471.288 438.552 1025.62 374.621 986.252 1567.62 1545.98 1116.75 308.188 808.56 786.479 1520.45 42.6003 1844.38 85.5812 423.702 113.002
internal_count=37925 25894 12031 8219 1146 7073 8742 4638 17675 2118 15557 870 3289 1844 1445 4315 1167 4202 4668 4568 5563 1419 4144 4066 4453 167 9994 401 1721 402
is_linear=0
shrinkage=0.015


Tree=12
num_leaves=31
num_cat=0
split_feature=16 1 10 16 1 6 9 7 1 13 16 14 4 24 1 8 15 4 3 5 14 5 6 10 16 24 7 4 1 3
split_gain=8606.11 1862.54 819.359 421.603 415.729 269.246 260.207 190.621 215.039 171.325 147.335 122.541 119.435 96.2642 93.0229 82.057 78.4755 157.503 83.4716 97.9383 81.1814 79.5638 77.1057 73.4901 69.1896 64.6407 64.0292 62.7622 60.6101 56.3689
threshold=0.095863986760377898 2021.5000000000002 3.7934666872024541 0.08596356958150865 2023.5000000000002 1.4461298584938052 525.25418090820324 0.61785250902175914 2023.5000000000002 8163.1936035156259 0.27520242333412176 19056.674804687504 4.4333424568176278 43141.154296875007 2024.5000000000002 2.9021897315979008 2.0868192911148076 5.7476978302001962 1.282233774662018 12.141099452972414 13099.046875000002 15.248234272003176 1.4350117444992068 2.8509725332260136 0.12880433350801471 26638.828125000004 0.3066652119159699 18.450851440429691 2019.5000000000002 2.3086640834808354
decision_type=2 2 2 2 2 2 2 2 2 2 2 2 10 2 2 2 2 8 2 10 2 10 2 2 2 2 2 10 2 2
left_child=3 2 10 7 6 -4 -3 8 13 -7 12 26 22 27 23 -14 18 20 19 -8 -18 -20 24 -6 -2 -13 -5 29 -17 -1
right_child=1 4 5 11 14 9 16 -9 -10 -11 -12 25 15 -15 -16 28 17 -19 21 -21 -22 -23 -24 -25 -26 -27 -28 -29 -30 -31
leaf_value=0.011208026478579488 0.014714884658081783 -0.013017373233485041 -0.016878090412382453 0.013764266214449299 0.014719033050762049 0.019920263022656821 -0.019008876769509499 0.022255734882045502 0.019244348140604474 -0.0099861094827882538 -0.02514114738879477 -0.0041677563739560613 -0.02095055929601156 -0.020122461612694841 0.017869178302240309 -0.019144024761370681 -0.0097828292249107825 -0.012586402784601294 0.018373864281510308 0.0047470761600148072 0.017286314663062272 -0.0027054031676430083 0.0065393440289083921 0.00098178661980388325 -0.020621335717568964 0.014279344184710965 -0.003255272319190827 -0.013959778792024697 0.0012346818214356878 -0.01465758530369358
leaf_weight=577.39363045990467 14.225353315472601 574.30790872871876 102.11357517540455 59.102899789810181 128.14597962796688 169.3440895229578 53.107655793428421 1649.8501984328032 1054.1017580777407 57.017843395471573 1456.7812610417604 48.405234590172768 1333.5037285536528 25.090285956859589 201.4569358676672 61.166293010115623 35.029810205101967 210.38723401725292 134.82265739142895 140.65632936358452 81.299074441194534 56.719543039798737 64.532842725515366 275.47759608924389 74.905257374048233 331.76155060529709 291.97186973690987 24.081333488225937 69.119571253657341 18.837853103876114
leaf_count=1903 46 2785 518 188 411 478 274 4358 2974 261 8295 202 7189 129 597 322 164 1007 402 524 242 239 238 1091 400 1038 1219 115 280 91
internal_value=-7.4783e-06 -0.0126247 -0.0192567 0.0163605 -0.000688802 0.00324639 -0.00551283 0.0186136 0.0150674 0.0123654 -0.0216623 0.00602719 -0.0185164 0.00822536 0.0095553 -0.0198379 0.000543845 -0.00485293 0.00512833 -0.00180002 0.0090983 0.012131 -0.00587073 0.00537112 -0.0148675 0.0119188 -0.000356754 0.00940124 -0.00836822 0.0103672
internal_weight=9374.72 5294.12 3402.71 4080.6 1891.41 328.476 1286.33 3349.36 1699.5 226.362 3074.23 731.242 1617.45 645.403 605.081 1463.79 712.022 326.716 385.306 193.764 116.329 191.542 153.663 403.624 89.1306 380.167 351.075 620.313 130.286 596.231
internal_count=37980 25763 18027 12217 7736 1257 5637 9570 5212 739 16770 2647 8475 2238 2099 7791 2852 1413 1439 798 406 641 684 1502 446 1240 1407 2109 602 1994
is_linear=0
shrinkage=0.015


Tree=13
num_leaves=31
num_cat=0
split_feature=0 14 6 0 7 0 16 33 2 9 6 5 15 3 7 7 5 2 3 34 7 5 9 7 3 16 27 16 3 2
split_gain=8820.15 1145.37 450.075 334.68 159.948 142.385 133.45 148.098 126.862 117.031 94.4303 83.7135 162.552 113.436 226.067 93.7238 89.5541 116.301 89.2127 77.8024 72.5913 69.2823 67.4377 61.6025 92.6652 90.0838 59.6115 58.2596 57.5362 128.196
threshold=65.500000000000014 11756.073730468752 1.5422633290290835 71.500000000000014 0.61785250902175914 46.500000000000007 0.2794193178415299 1.1280313134193423 28.519754409790043 506.19599914550787 1.3305495381355288 17.793451309204105 2.0075095891952519 1.4018309116363528 0.39758759737014776 0.56536921858787548 21.328639984130863 16.253170013427738 2.3362941741943364 0.2446742728352547 0.4045324325561524 24.91816329956055 624.40789794921886 0.6100040376186372 1.5301036834716799 0.11745646968483926 2.4020940065383916 0.14815749228000644 2.3086640834808354 31.241642951965336
decision_type=2 2 2 2 2 2 2 2 10 2 2 10 2 2 2 2 10 10 2 2 2 10 2 2 2 2 2 2 2 10
left_child=1 6 5 -2 22 -3 11 9 19 10 -8 12 13 14 -1 -15 17 18 -13 -7 -21 27 26 25 -25 -18 28 -4 -5 -30
right_child=3 2 21 4 -6 8 7 -9 -10 -11 -12 16 -14 15 -16 -17 23 -19 -20 20 -22 -23 -24 24 -26 -27 -28 -29 29 -31
leaf_value=0.023283348925558885 0.0075391784104489679 -0.012659152037218058 0.02055032641624361 0.017448922569093344 0.022920694111605688 0.020541544535682729 0.0079752352947947535 -0.022004308269464437 -0.023338061851012747 -0.019742339604268737 -0.014533972282180415 0.01024891445593735 -0.022217283667839836 -0.019178645294874778 -0.010666888604834748 0.0032521272270276086 -0.0024260309261128809 -0.021256526952233977 -0.022761834282046131 0.017475319658836832 -0.0029840954697469128 -0.011156200523115358 -0.0063545155449572189 -0.016154196491267692 0.0045472583842194594 -0.021261441054152643 -0.0077684141150794316 0.0012526642107630937 -0.023723762745594713 0.025813661329187956
leaf_weight=54.032182857394218 624.28802326321602 444.62176868319511 213.49552516639233 1502.6305476874113 1606.7132451087236 34.134071379899979 93.996470764279366 1387.8276878744364 62.42583541572094 165.53634981811047 74.345633715391159 124.935617223382 588.14943416416645 352.26894356310368 225.04654167592525 47.063091114163399 73.954427123069763 48.256818905472755 20.770821169018745 39.741076841950417 1023.1677869409323 20.046632543206215 28.75832961499691 102.39046151936054 91.204599618911743 259.56456518173218 21.677866846323013 42.648390561342239 23.428106695413589 22.027617692947388
leaf_count=147 2195 2155 591 4386 4171 96 338 7679 341 892 376 439 3220 1862 1072 190 313 262 114 120 4302 94 125 519 351 1405 95 167 124 53
internal_value=7.29933e-05 -0.0119405 -0.00240026 0.0176077 0.0195655 -0.00544821 -0.0167742 -0.0198425 -0.00267362 -0.0108164 -0.00196959 -0.0141079 -0.0164381 -0.0114031 -0.00403533 -0.0165264 -0.00999725 -0.00125853 0.00542408 -0.00147885 -0.00220375 0.0152558 0.0161814 -0.0132004 -0.00640752 -0.0171097 0.0165992 0.0173628 0.0169462 0.00024824
internal_weight=9419.15 5589.62 1880.28 3829.52 3205.24 1604.09 3709.34 1721.71 1159.47 333.878 168.342 1987.64 1266.56 678.411 279.079 399.332 721.077 193.963 145.706 1097.04 1062.91 276.191 1598.52 527.114 193.595 333.519 1569.76 256.144 1548.09 45.4557
internal_count=38194 27045 7866 11149 8954 7014 19179 9285 4859 1606 714 9894 6491 3271 1219 2052 3403 815 553 4518 4422 852 4783 2588 870 1718 4658 758 4563 177
is_linear=0
shrinkage=0.015


Tree=14
num_leaves=31
num_cat=0
split_feature=0 1 10 1 6 0 11 16 1 7 25 6 18 20 3 18 1 14 15 3 25 8 8 1 11 7 1 0 3 0
split_gain=8519.45 2076.73 760.09 384.056 258.105 237.618 205.402 176.225 149.686 148.186 147.987 108.566 126.149 102.737 192.464 127.543 91.9758 88.7662 77.0271 82.7366 76.0554 72.9391 76.9095 68.0956 66.6688 53.1261 65.7787 52.9815 52.881 50.1464
threshold=66.500000000000014 2021.5000000000002 3.8210906982421879 2024.5000000000002 1.4708184599876406 71.500000000000014 0.46763719618320471 0.26298305392265325 2023.5000000000002 0.61785250902175914 5.7065658569335946 1.4242582917213442 3771.9423828125005 38.500000000000007 1.4266867041587832 2648.9387207031255 2024.5000000000002 8588.1425781250018 2.8510490655899052 1.5670273900032046 3.7135537862777714 2.9372534751892094 2.1247351169586186 2019.5000000000002 0.45852446556091314 0.59327471256256115 2022.5000000000002 57.500000000000007 2.3086640834808354 59.500000000000007
decision_type=2 2 2 2 2 2 2 2 2 2 10 2 2 2 2 2 2 2 2 2 10 2 2 2 2 2 2 2 2 2
left_child=1 2 7 6 -4 25 8 11 18 16 -6 21 24 14 15 -8 20 -10 19 -3 -7 22 -1 -23 -13 26 -2 -16 -22 -5
right_child=5 3 4 29 10 9 13 -9 17 -11 -12 12 -14 -15 27 -17 -18 -19 -20 -21 28 23 -24 -25 -26 -27 -28 -29 -30 -31
leaf_value=-0.016986016098147257 -0.0074934125256944199 -0.010329602798515247 -0.014551919900300584 0.020300109835024546 0.018602347628443022 0.0010434095530875572 0.021982974562096413 -0.024537011968180925 0.010640210473323761 0.022584287230752873 -0.01480039668849791 -0.022831344833790748 -0.017303122592623208 0.022969656733689257 -0.015054781284285191 0.0022688337517944835 0.021398494345985352 -0.0068516967927575133 0.011289578797937544 -0.023939783286912326 0.015428407712500579 -0.024563752034218945 -0.024564828148278654 0.0025014744966259396 0.0085798120707009026 0.012434446040358099 0.0092659247869769576 -0.00073145383947307717 -0.0052585774335208377 0.0027395236630838459
leaf_weight=759.96148303151131 85.490610793232918 337.40704597532749 119.26285713911057 209.77209508419037 175.66529682278633 99.701930016279221 80.868038728833199 1543.5292743742466 115.76824553310871 1576.6744032502174 35.190493315458298 17.293250367045403 155.99300566315651 47.8130903840065 179.79189483821392 780.29954840242863 499.70566359162331 147.4741005897522 26.934178456664085 144.97093033790588 956.84729011356831 30.099603429436684 519.4978255033493 63.854411721229553 93.939771249890327 304.43781362473965 134.2906759083271 86.459981381893158 28.049581676721573 45.105990096926689
leaf_count=3949 376 1591 588 592 506 382 226 8841 399 4115 173 96 808 125 895 3040 1343 650 90 804 2899 169 2934 253 339 979 460 351 119 170
internal_value=-1.8843e-05 -0.0114825 -0.0186386 -6.12053e-05 0.00301237 0.0177629 -0.00233054 -0.0208844 -0.00833483 0.0193152 0.0129786 -0.0174358 -0.0086307 0.00161689 0.000693033 0.00414226 0.0160502 0.000838432 -0.0130759 -0.014459 0.0135693 -0.0191409 -0.020079 -0.00627181 0.00354142 0.00838178 0.00272974 -0.0104309 0.0148324 0.0172224
internal_weight=9402.15 5716.95 3514.29 2202.67 330.119 3685.2 1947.79 3184.17 772.555 3160.98 210.856 1640.64 267.226 1175.23 1127.42 861.168 1584.3 263.242 509.312 482.378 1084.6 1373.41 1279.46 93.954 111.233 524.219 219.781 266.252 984.897 254.878
internal_count=38262 27589 18656 8933 1267 10673 8171 17389 3534 8858 679 8548 1243 4637 4512 3266 4743 1049 2485 2395 3400 7305 6883 422 435 1815 836 1246 3018 762
is_linear=0
shrinkage=0.015


Tree=15
num_leaves=31
num_cat=0
split_feature=0 1 10 0 1 12 4 13 15 16 9 18 12 9 15 2 0 2 4 1 10 24 9 33 2 8 37 25 1 2
split_gain=8245.35 1770.78 736.624 379.016 367.813 293.93 205.97 189.51 159.276 149.069 119.792 143.196 113.891 125.502 93.4486 115.353 88.6771 90.2251 87.5965 85.9583 78.4759 75.616 70.176 67.4381 64.5733 64.0649 61.1505 60.6654 59.2231 81.2864
threshold=64.500000000000014 2021.5000000000002 3.7490442991256718 72.500000000000014 2024.5000000000002 5.161802053451539 5.6137995719909677 8163.1936035156259 2.0475699901580815 0.27115425467491155 503.14791870117193 4054.230346679688 4.666438341140748 622.59225463867199 2.6652927398681645 18.750172615051273 52.500000000000007 8.3751544952392596 18.450851440429691 2023.5000000000002 3.9322934150695805 26530.627929687504 630.24499511718761 0.93140566349029552 12.342096328735353 2.1276878118515019 0.14961142092943194 3.0769400596618657 2024.5000000000002 11.705178737640383
decision_type=2 2 2 2 2 2 10 2 2 2 2 2 2 2 2 10 2 10 10 2 2 2 2 2 10 2 2 10 2 10
left_child=1 2 9 21 6 -4 20 -7 10 14 19 -12 13 18 25 27 17 -10 28 -8 22 -2 23 -3 -22 26 -1 -16 29 -5
right_child=3 4 5 12 -6 7 8 -9 16 -11 11 -13 -14 -15 15 -17 -18 -19 -20 -21 24 -23 -24 -25 -26 -27 -28 -29 -30 -31
leaf_value=0.00091591062797188177 -0.0006342371203081113 0.015003532425771677 -0.01394693933972377 0.00092560576537131637 0.017406071635032411 0.020665110204872071 -0.014148502419794911 -0.011252704248484341 0.018917898771236074 -0.024188281426377078 0.011200768740431541 -0.010296467439906207 0.022518488921362774 -0.015718288163149421 0.021005052480215777 -0.024653043329221479 -0.0054414865373145598 -0.018198652083584402 -0.011683477007801623 0.0035909382045229005 0.00096695715403193516 0.01021757376870751 0.021508928997582 -0.0034549201918008857 0.020630747219766557 -0.022619180665052089 -0.01707932906894357 -0.0048654010842537438 0.021589807460180032 0.016635773344920002
leaf_weight=44.646693825721741 184.99248504638672 50.906533986330032 162.29275827109814 80.525105580687523 223.12825140357018 164.53603467345238 182.59760810434818 55.332538992166519 14.703678548336027 1485.4367426931858 244.05077481269836 96.630858972668648 1344.9961231052876 25.896448269486427 23.880636438727379 63.348755046725273 297.86905317008495 336.98358498513699 22.76255901157856 91.670331344008446 60.086573764681816 649.18403005599976 33.595390096306801 319.56045347452164 101.35993407666683 609.22861188650131 742.17650391161442 116.53887508809566 550.63969404995441 1007.4960193186998
leaf_count=184 736 160 801 307 663 455 908 259 45 8540 828 448 3512 125 69 358 1303 1746 105 352 235 2176 93 1363 283 3391 3884 515 1470 2977
internal_value=-1.64602e-05 -0.0117813 -0.0183173 0.0167795 -0.000738845 0.0013171 -0.00295948 0.0126073 -0.00632459 -0.02075 -0.000845186 0.00508468 0.0192435 0.0166218 -0.0175452 -0.00798728 -0.0115 -0.0165989 0.017135 -0.00821523 0.00455808 0.00780911 0.00100965 -0.000883567 0.0133717 -0.0189328 -0.0160545 -0.000350395 0.0175427 0.0154773
internal_weight=9387.05 5520.56 3467.42 3866.49 2053.14 382.161 1830.01 219.869 1264.51 3085.26 614.95 340.682 3032.32 1687.32 1599.82 203.768 649.556 351.687 1661.42 274.268 565.509 834.177 404.062 370.467 161.447 1396.05 786.823 140.42 1638.66 1088.02
internal_count=38291 26883 18456 11408 8427 1515 7764 714 5630 16941 2536 1276 8496 4984 8401 942 3094 1791 4859 1260 2134 2912 1616 1523 518 7459 4068 584 4754 3284
is_linear=0
shrinkage=0.015


Tree=16
num_leaves=31
num_cat=0
split_feature=14 14 14 17 12 10 5 11 4 12 4 17 5 15 19 10 39 11 9 5 18 15 14 5 8 32 8 5 39 34
split_gain=5833.35 726.228 673.855 615.266 428.467 279.501 200.459 144.343 140.57 228.579 138.13 189.356 163.493 134.749 136.951 122.647 113.095 106.258 93.8525 106.587 91.1172 86.0803 84.6861 220.617 87.4746 79.1567 73.4661 70.7698 69.1702 87.3374
threshold=15451.351074218752 10963.518554687502 20870.522460937504 69.42847061157228 3.8594185113906865 2.2851670980453496 19.779337882995609 0.52404069900512706 5.5509164333343515 5.0903656482696542 4.3790819644927987 68.873977661132827 12.025286674499513 1.8610560297966006 30598.506835937504 3.036796092987061 0.87208712100982677 0.81642016768455516 344.07954406738287 16.805758476257328 3068.2690429687505 1.8808610439300539 25143.626953125004 13.108150482177736 2.0062851905822758 2.9465392827987675 1.7934278845787051 10.743712425231935 2.5717617273330693 0.53656107187271129
decision_type=2 2 2 10 2 2 10 2 10 2 10 10 10 2 2 2 2 2 2 10 2 2 2 10 2 2 2 10 2 2
left_child=1 4 10 16 5 28 26 -8 9 -5 25 -12 -13 14 20 -15 -3 21 -17 -20 -6 -14 23 24 -4 -2 -7 -22 29 -1
right_child=2 3 22 8 13 6 7 -9 -10 -11 11 12 17 15 -16 18 -18 -19 19 -21 27 -23 -24 -25 -26 -27 -28 -29 -30 -31
leaf_value=-0.002026076097693839 0.019666450528143357 0.012311356080569432 -0.012319841548906387 -0.011514256357555451 -0.0069038122497794762 0.0031610396977084635 0.019658433740301361 -0.00010318790685969564 -0.013174726958577833 0.013604644168490023 0.015692033886258484 -0.012923576810039495 -0.011236358618650131 -0.020346215232723938 -0.019889349836053258 0.0072944523211186238 -0.017968626803862291 -0.015172221360898614 -0.019630106550897253 -0.0089543997975225342 -0.0092192426443232951 0.0064986421523483828 0.020760764298277955 0.018661091466742025 0.0081842738396667135 -0.0046345677625789922 -0.019322378456695707 0.025897562291982087 0.0028647665174475262 -0.019409228027172772
leaf_weight=84.148944243788719 207.28045335412025 548.23976050317287 69.433481723070145 194.86151660978794 244.28344839811325 49.614344090223312 164.55849778652191 166.68642430007458 606.69892419874668 138.89048567414284 242.83826830983162 159.76226386427879 66.33878268301487 1580.9829029589891 166.3423708230257 46.291096985340118 28.465041980147362 62.393612518906593 439.57203331589699 410.45250479876995 18.827451959252357 738.04913359880447 1495.9596832841635 801.36883346736431 139.45740894973278 34.730383232235909 92.848318457603455 37.455974772572517 51.526376873254776 294.69008183479309
leaf_count=363 584 1786 324 927 1118 195 470 679 2979 446 732 771 306 8707 906 174 143 305 2371 1937 88 2666 4058 2275 484 148 488 93 204 1603
internal_value=4.28108e-05 -0.0101906 0.0137094 -0.00139827 -0.0136551 -0.00461301 0.00333032 0.00972882 -0.00887764 -0.00104455 0.0057916 0.00380298 0.000977564 -0.0164286 -0.00900041 -0.0178241 0.0107888 0.00355279 -0.0133579 -0.0144919 -0.00292741 0.00502258 0.0184797 0.0150851 0.00133358 0.0161629 -0.0114974 0.0141335 -0.0133532 -0.0155683
internal_weight=9383.05 5365.44 4017.61 1517.16 3848.28 904.073 473.708 331.245 940.451 333.752 1511.39 1269.38 1026.54 2944.21 466.909 2477.3 576.705 866.782 896.316 850.025 300.567 804.388 2506.22 1010.26 208.891 242.011 142.463 56.2834 430.365 378.839
internal_count=38330 25677 12653 6281 19396 4002 1832 1149 4352 1373 5512 4780 4048 15394 2205 13189 1929 3277 4482 4308 1299 2972 7141 3083 808 732 683 181 2170 1966
is_linear=0
shrinkage=0.015


Tree=17
num_leaves=31
num_cat=0
split_feature=0 1 10 0 1 12 11 5 7 0 5 3 20 6 2 7 1 6 25 36 25 6 14 3 30 1 17 0 32 19
split_gain=7737.32 1836.2 708.64 380.121 366.693 276.991 192.735 153.21 144.416 131.836 125.989 110.45 189.987 137.61 121.089 111.672 105.669 100.404 111.626 96.7501 79.7759 76.5671 73.6029 105.246 72.4801 66.6143 63.4759 62.7884 88.4526 56.7419
threshold=64.500000000000014 2021.5000000000002 3.7668190002441411 71.500000000000014 2024.5000000000002 5.161802053451539 0.43779762089252477 14.075241565704347 0.61785250902175914 22.500000000000004 26.04322719573975 1.4266867041587832 37.500000000000007 1.3257538080215456 6.0106904506683358 1.15439909696579 2023.5000000000002 1.4242582917213442 4.7898821830749521 4.3649075031280526 6.300004482269288 1.5422633290290835 6126.7426757812509 1.3716139197349551 3.3625921602720161e-08 2023.5000000000002 78.399925231933608 47.500000000000007 2.8106036186218266 36679.449218750007
decision_type=2 2 2 2 2 2 2 10 2 2 10 2 2 2 8 2 2 2 10 2 10 2 2 2 2 2 10 2 2 2
left_child=1 2 9 21 6 -4 10 -7 16 -1 19 13 14 -8 -13 -15 24 27 29 25 -12 22 -2 26 -5 -3 -24 -11 -29 -19
right_child=3 4 5 8 -6 7 11 -9 -10 17 20 12 -14 15 -16 -17 -18 18 -20 -21 -22 -23 23 -25 -26 -27 -28 28 -30 -31
leaf_value=-0.023671109784347284 0.024774162504056518 -0.010687282247817707 -0.014035355164193384 0.013032511208743757 0.01772253078231598 -0.011946791655603821 0.01284390408281183 0.019092849438169118 0.021826910632469939 -0.020844989334640004 0.019650585895693358 0.02100945972189075 0.021341408595987869 -0.0028748061779349404 -0.014360033014594965 0.015215963328050875 0.018278428336621997 0.01101006408960894 -0.017789128487143768 -0.018026976682803206 -0.0098401227917814995 0.020732891229947252 0.013296301334562454 -0.00285547196385866 0.00018854485309123911 0.0041191765015175311 -0.0029935430068091743 -0.01616936509075758 0.0074126161200116572 -0.0099867889425427538
leaf_weight=1487.3609414100647 38.188445121049881 198.2356261909008 147.46802374720573 437.72666294872761 228.03983072936535 44.557361394166946 270.68867368996143 169.84268800914288 1563.8659500777721 1027.2960544973612 51.472771868109703 23.130325168371201 46.554909229278564 495.45608837902546 244.76021511852741 90.022867307066917 1004.3482350558043 67.121569097042084 138.81745485961437 268.06671257317066 33.314588278532028 75.194367527961731 238.15677626430988 298.13244540989399 128.27185878157616 103.24775956571102 68.771655544638634 260.93163532018661 40.792283579707146 49.619929939508438
leaf_count=8611 95 950 732 1381 672 212 893 483 4135 5675 155 68 125 2092 1211 278 2860 235 736 1386 158 204 755 1227 500 393 280 1347 150 236
internal_value=3.99128e-05 -0.0113997 -0.018108 0.0163315 -0.000175222 0.00173488 -0.0024201 0.0126077 0.0185877 -0.0204463 -0.0089354 0.00122282 -0.00636605 0.00401683 -0.0112415 -7.1097e-05 0.0153506 -0.017407 -0.00873535 -0.0114761 0.0080444 0.00647468 0.00477958 0.00348163 0.0101314 -0.00560917 0.00963829 -0.019066 -0.0129601 0.00205279
internal_weight=9339.45 5486.8 3433.81 3852.66 2052.99 361.868 1824.95 214.4 3134.21 3071.94 654.337 1170.61 314.445 856.168 267.891 585.479 1570.35 1584.58 255.559 569.55 84.7874 718.444 643.249 605.061 565.999 301.483 306.928 1329.02 301.724 116.741
internal_count=38235 26798 18417 11437 8381 1427 7709 695 8876 16990 3042 4667 1404 3263 1279 2370 4741 8379 1207 2729 313 2561 2357 2262 1881 1343 1035 7172 1497 471
is_linear=0
shrinkage=0.015


Tree=18
num_leaves=31
num_cat=0
split_feature=16 1 16 10 15 1 9 7 1 1 12 6 6 1 2 4 24 9 8 8 4 2 4 1 5 11 8 15 2 8
split_gain=7333.97 1476.5 777.14 647.041 243.943 232.751 198.896 183.039 191.541 158.927 151.814 116.4 114.557 108.445 89.0163 87.1316 85.1954 82.1886 83.8694 79.8088 83.4048 75.9275 87.0502 81.6009 73.4397 66.5713 60.7264 57.9236 57.8335 57.5868
threshold=0.10622414946556093 2022.5000000000002 0.08596356958150865 3.5941529273986821 2.4624750614166264 2023.5000000000002 521.31427001953136 0.61533415317535411 2023.5000000000002 2020.5000000000002 5.4879522323608407 1.5285351276397707 1.426496744155884 2021.5000000000002 19.003667831420902 18.450851440429691 42271.927734375007 568.65716552734386 2.1247351169586186 1.7003283500671389 8.4403872489929217 11.040534973144533 11.052172660827638 2024.5000000000002 17.643260002136234 0.90081965923309337 1.8749926686286928 2.0624125003814702 22.923306465148929 1.8562484383583071
decision_type=2 2 2 2 2 2 2 2 2 2 2 2 2 2 10 10 2 2 2 2 10 10 10 2 10 2 2 2 10 2
left_child=2 3 7 9 10 19 24 8 15 -2 27 13 -6 14 -8 16 -1 -11 28 -3 29 -7 23 26 -4 -15 -23 -5 -19 -21
right_child=1 5 6 4 12 21 11 -9 -10 17 -12 -13 -14 25 -16 -17 -18 18 -20 20 -22 22 -24 -25 -26 -27 -28 -29 -30 -31
leaf_value=0.0096422388889333393 -0.022310365695392013 0.02126800617864516 -0.0078379251466714778 -0.0069826726535013013 -0.023881615651935847 0.021662625737907216 0.011404519714112573 0.020857311815190811 0.017828083582886057 -0.01732772480396368 0.010267676029724549 0.020173077266969 0.015455434997129496 0.0098962850144900735 -0.012593434226387701 -0.020114035352055946 -0.017270021078509803 -0.0071191151683709947 -0.017789475448506595 0.019207419673519629 -0.01694993749901785 0.020070237684437706 -0.019746271256244129 0.019098406629856877 0.0046868056758230196 -0.019964414791425859 -0.00026233879445992632 -0.018375465114775533 0.013494855933015418 -0.003633689160960225
leaf_weight=595.31979131698608 2238.9018611013889 25.545044988393784 338.02681192755699 196.72467093169689 17.846862956881523 118.17878490686417 49.419062688946724 1633.9269529879093 1013.6146733015776 690.93192870914936 74.642915606498718 147.48275253176689 157.2902018725872 487.54113321006298 112.13274630904198 24.185315236449242 26.90597128868103 74.338163837790489 87.680867463350296 26.571821436285973 107.10756409168243 40.501757249236107 23.361155673861504 128.05684600770473 151.90622180700302 16.60861910879612 163.95002292096615 210.23796585202217 50.844977021217346 265.61134061217308
leaf_count=1999 12768 72 1525 898 101 329 167 4412 2911 3641 255 407 485 1654 539 124 134 347 469 79 553 115 121 366 568 86 667 1100 176 1148
internal_value=-6.24194e-05 -0.013241 0.0134058 -0.0173305 -0.00377848 0.00404135 0.00359459 0.0172844 0.0137576 -0.0201599 -0.00929207 0.00814149 0.0113395 0.00545043 -0.0052139 0.00735601 0.00845302 -0.0148145 -0.00660852 -0.0040129 -0.00567706 0.0112604 0.00775671 0.00974075 -0.00394715 0.00887655 0.00381344 -0.0129001 0.00126227 -0.00149945
internal_weight=9295.39 4698.32 4597.07 3799.44 656.743 898.884 1303.12 3293.95 1660.03 3142.7 481.606 813.184 175.137 665.702 161.552 646.411 622.226 903.796 212.864 424.836 399.291 474.049 355.87 332.509 489.933 504.15 204.452 406.963 125.183 292.183
internal_count=38216 23690 14526 20240 2839 3450 4946 9580 5168 17401 2253 2853 586 2446 706 2257 2133 4633 992 1852 1780 1598 1269 1148 2093 1740 782 1998 523 1227
is_linear=0
shrinkage=0.015


Tree=19
num_leaves=31
num_cat=0
split_feature=0 0 6 0 4 16 3 5 7 3 6 5 2 9 5 15 7 7 5 3 3 3 17 19 38 4 3 16 4 3
split_gain=7556.21 1067.92 414.533 217.227 216.995 234.325 194.42 198.17 160.664 129.658 261.592 123.158 194.816 112.058 108.666 111.728 111.468 100.506 108.017 97.9574 112.015 92.3774 112.469 87.2032 87.0715 81.1907 76.2638 65.8293 65.7931 90.5356
threshold=66.500000000000014 44.500000000000007 1.5260076522827151 71.500000000000014 4.3790819644927987 0.29365882277488714 1.3808933496475222 19.779337882995609 0.61533415317535411 1.3669296503067019 1.3196280002593996 25.205842971801761 16.253170013427738 626.31478881835949 12.198722362518312 1.8776887059211733 0.40113151073455816 0.93679744005203258 14.01597309112549 1.4930006265640261 1.2351059913635256 1.6131531000137331 69.040153503417983 30905.282226562504 0.55651143193244945 18.450851440429691 2.2477865219116215 0.2169119939208031 10.608400821685793 2.2477865219116215
decision_type=2 2 2 2 8 2 2 10 2 2 2 10 10 2 10 2 2 2 10 2 2 2 10 2 2 10 2 2 10 2
left_child=1 4 6 -2 5 17 13 21 25 10 23 12 -9 14 16 -16 -3 18 -1 20 -4 22 -8 24 -6 28 -13 -25 29 -5
right_child=3 2 19 8 9 -7 7 11 -10 -11 -12 26 -14 -15 15 -17 -18 -19 -20 -21 -22 -23 -24 27 -26 -27 -28 -29 -30 -31
leaf_value=0.026033031361816852 0.0077867996834394453 0.025741992299192849 0.016164038525853092 0.013859335126784758 0.012801992740158958 -0.01601680191696853 -0.0031724209649797172 0.023017099183237549 0.021619921183800832 -0.020432055130196407 -0.017952177913792441 -0.011139795255853199 -0.01159641801367702 -0.020784483109919975 -0.012288779257411309 0.0074726151116070181 -0.010261733321988129 0.012837276875804266 -0.0090543667926109711 0.02438143499640311 -0.012448657456588316 -0.025328770923387606 -0.019192709483802761 -0.00054881580519580394 -0.010339635458916339 -0.013309820918977781 0.023528499325741772 -0.019964441928217596 0.019147995639277889 -0.0062070402207428186
leaf_weight=21.524599641561508 524.11687240004539 20.454743653535843 86.385309755802155 891.71104593575001 111.66731490194798 381.41614203155041 190.66042716801167 90.968532308936119 1585.0850306302309 1628.744248136878 954.93828345835209 190.25429137051105 60.07209624350071 53.002228289842606 72.72186005115509 514.90513187646866 214.62985062599182 112.43151578307152 169.19065056741238 131.6959370970726 46.768263831734657 151.9970865547657 205.40809518098831 78.905300810933113 53.37925224006176 22.084456816315651 14.637054428458212 78.208156496286392 595.58138509094715 52.97819359600544
leaf_count=54 1823 50 258 2758 377 2037 839 247 4208 9094 5145 906 286 285 346 1860 1002 370 794 331 222 864 1081 340 260 104 41 439 1668 224
internal_value=1.16578e-05 -0.0108976 -0.0022412 0.0167543 -0.0158246 -0.00820482 -0.00484952 -0.00972593 0.0182443 -0.0176159 -0.0140113 -0.000997241 0.00924224 0.000185252 0.00155872 0.00500856 -0.00703965 0.00163056 -0.00498645 0.0152364 0.00607752 -0.0153794 -0.0115103 -0.00230519 0.00528568 0.0148083 -0.00856669 -0.0102847 0.0152201 0.0127265
internal_weight=9306.52 5634.97 2044.56 3671.56 3590.41 684.563 1779.71 903.998 3147.44 2905.84 1277.1 355.932 151.041 875.714 822.712 587.627 235.085 303.147 190.715 264.85 133.154 548.066 396.069 322.16 165.047 1562.36 204.891 157.113 1540.27 944.689
internal_count=38313 27528 8618 10785 18910 3255 7807 4264 8962 15655 6561 1480 533 3543 3258 2206 1052 1218 848 811 480 2784 1920 1416 637 4754 947 779 4650 2982
is_linear=0
shrinkage=0.015


Tree=20
num_leaves=31
num_cat=0
split_feature=0 1 10 1 0 6 4 3 6 0 13 6 4 3 1 23 19 10 10 23 32 0 2 2 4 2 25 6 13 3
split_gain=7167.08 1728.19 694.907 323.018 288.237 247.367 177.354 181.42 251.455 152.948 140.352 123.032 122.885 102.404 100.848 113.28 94.2878 90.5332 87.5494 81.0578 70.1467 61.036 72.7756 58.1236 55.3319 53.5881 50.829 49.371 49.5691 71.7785
threshold=65.500000000000014 2021.5000000000002 3.811833500862122 2024.5000000000002 70.500000000000014 1.4708184599876406 5.6137995719909677 1.3808933496475222 1.3706440925598147 22.500000000000004 8662.9936523437518 1.4350117444992068 5.1230158805847177 1.2736915946006777 2023.5000000000002 1.010375567933597e-10 40583.505859375007 3.8307222127914433 2.7293905019760136 6.2660557298421806e-11 2.6802880764007573 47.500000000000007 16.253170013427738 15.003611564636232 18.450851440429691 11.194434165954592 3.9020025730133061 1.5551956892013552 1131.8110351562502 1.3788905143737795
decision_type=2 2 2 2 2 2 10 2 2 2 2 2 10 2 2 2 2 2 2 2 2 2 10 10 10 10 10 2 2 2
left_child=1 2 9 6 27 -4 17 8 13 -1 -7 21 -13 -8 15 16 24 18 -3 23 -19 -11 -23 -9 25 -6 -10 28 -2 -30
right_child=4 3 5 -5 14 10 7 19 26 11 -12 12 -14 -15 -16 -17 -18 20 -20 -21 -22 22 -24 -25 -26 -27 -28 -29 29 -31
leaf_value=-0.023179961918328641 0.023405829090201304 0.010685681721472075 -0.013705798092252846 0.016496026975335251 -0.0052884843012109099 0.018996743152844549 -0.0034781849187612464 0.0052663706904223923 0.012482416408999972 -0.019968420651194817 -0.014632563282987648 0.0064905053699723927 -0.015124466526101006 0.012806981645862367 0.019743167141401757 0.021340523219549146 -0.01690327422518987 0.015563191273251885 -0.0050391340282552339 -0.017105708460622659 -0.0080015931549927716 0.0008555748037490737 -0.016190957480765961 -0.009549534857462242 -0.012701575561097033 0.013477182468677495 -0.012390323012706143 0.02095096180177904 0.0088644033866985723 -0.0031140393654445547
leaf_weight=1455.0700895786285 28.033313304185867 116.15509589016438 117.54807046055794 231.23698233067989 35.388672009110451 170.70175532996655 126.25660887360573 76.212454542517662 19.099321737885475 1048.8862059414387 32.63619227707386 96.721045061945915 149.65769332647324 273.97830827534199 2094.4637573212385 338.90877063572407 25.764881566166878 190.6586786210537 249.04720057547092 283.62502740323544 32.687166154384613 71.681315958499908 255.85687360167503 261.77678768336773 19.333223342895508 688.27831788361073 268.53482794761658 43.303606405854225 232.19897152483463 216.66482834517956
leaf_count=8552 71 404 584 694 148 485 539 292 64 5838 161 362 778 905 5781 905 126 586 1087 1473 146 294 1333 1234 91 2147 1296 116 790 893
internal_value=2.62447e-05 -0.0108073 -0.0174443 -0.000209206 0.0161148 0.00354589 -0.00225208 -0.00532618 -1.24872e-05 -0.019634 0.0135483 -0.0164429 -0.00663338 0.00766555 0.0177975 0.0141043 0.0108915 0.00458047 -1.71272e-05 -0.0111938 0.0120848 -0.0181917 -0.0124582 -0.00619533 0.0118765 0.0125505 -0.0106983 0.00573912 0.00431878 0.00308053
internal_weight=9250.37 5528.03 3398.76 2129.27 3722.34 320.886 1898.03 1309.48 687.869 3077.87 203.338 1622.8 246.379 400.235 3202.14 1107.67 768.765 588.548 365.202 621.614 223.346 1376.42 327.538 337.989 743 723.667 287.634 520.201 476.897 448.864
internal_count=38175 27107 18387 8720 11068 1230 8026 5803 2804 17157 646 8605 1140 1444 9198 3417 2512 2223 1491 2999 732 7465 1627 1526 2386 2295 1360 1870 1754 1683
is_linear=0
shrinkage=0.015


Tree=21
num_leaves=31
num_cat=0
split_feature=0 1 10 1 4 9 0 6 7 14 0 1 4 7 3 5 18 5 14 8 15 8 3 15 17 3 4 8 3 7
split_gain=7036.71 1762.79 698.43 284.125 283.791 225.052 188.075 148.845 145.5 129.205 116.365 105.754 91.8992 89.7684 88.4411 149.509 118.752 94.9124 90.3322 76.7886 70.0296 64.7956 64.4806 66.3768 61.0998 55.539 54.1774 61.8967 59.0398 50.954
threshold=66.500000000000014 2021.5000000000002 3.7668190002441411 2023.5000000000002 5.9478881359100351 509.35969543457037 71.500000000000014 1.4461298584938052 0.61533415317535411 6687.8222656250009 48.500000000000007 2023.5000000000002 4.3790819644927987 0.65572205185890209 1.4245110154151919 22.783337593078617 2689.605834960938 11.959416389465334 14062.923339843752 2.9117425680160527 2.8510490655899052 2.0705891847610478 1.6131531000137331 1.8579479455947878 69.754821777343764 1.1468586921691897 10.418058872222902 2.4810062646865849 1.3535009026527407 0.60764348506927501
decision_type=2 2 2 2 10 2 2 2 2 2 2 2 10 2 2 10 2 10 2 2 2 2 2 2 10 2 10 2 2 2
left_child=1 2 9 5 7 20 29 -4 11 -1 -5 21 13 -11 16 -16 -7 -18 -17 -14 22 -8 23 -3 -21 -6 28 -28 -23 -2
right_child=6 3 4 10 25 14 8 -9 -10 12 -12 -13 19 -15 15 18 17 -19 -20 24 -22 26 -24 -25 -26 -27 27 -29 -30 -31
leaf_value=-0.022220746687207017 0.0026023419744699286 0.00098588644269178237 -0.0098777946333384985 0.01374459350465042 0.012801635056155987 0.021644524601324506 0.013611537335491317 0.018559534644406236 0.02095420652428524 -0.019469961965064016 0.0017549301156202393 0.017371807216536882 -0.018426863427930571 0.0050596067120639377 -0.021675453385596514 -0.0061620643847675061 -0.0080489775333159579 0.0047834543433460958 0.018740452970765771 0.0074114603757594643 0.011504096315812496 0.022057946090596824 -0.022842325064633427 -0.013658876793693651 -0.018983489903799833 -0.017411212213610118 0.00061699309681091425 0.025420298831937534 -0.0057929413616403438 0.012063676230953906
leaf_weight=1788.6320836395025 229.21822552382946 92.288913533091545 52.856905966997147 357.13530471920967 14.556471124291418 69.846767202019691 319.43104328215122 181.75596036016941 1546.4302030801773 53.787056714296341 372.69876256585121 990.58546608686447 1046.4701905697584 86.255053639411926 96.642859667539597 94.82901619374752 180.26768344640732 455.75314521789551 49.028435319662094 48.462719410657883 26.721876859664917 18.841753289103508 116.79147760570049 277.06617657840252 32.074060544371605 133.01278436183929 48.051958873867989 42.506192430853844 132.16475793719292 293.78910711407661
leaf_count=10452 869 381 250 1152 49 196 991 519 4165 294 1448 2860 5715 336 528 430 824 1708 139 179 89 49 659 1382 175 689 186 104 557 943
internal_value=-2.74953e-05 -0.0105235 -0.0172218 -3.87916e-07 0.00188491 -0.00382318 0.0162809 0.0121282 0.0176868 -0.0196123 0.00763466 0.0144191 -0.0159161 -0.00439743 0.000512078 -0.00732524 0.00319189 0.0011361 0.00236099 -0.0173406 -0.011817 0.00918276 -0.0131218 -0.00999734 -0.00314686 -0.0143578 0.00328842 0.0124127 -0.00220017 0.0079331
internal_weight=9247.95 5626.93 3437.86 2189.07 382.182 1459.24 3621.02 234.613 3098.01 3055.68 729.834 1551.58 1267.05 140.042 946.368 240.5 705.868 636.021 143.857 1127.01 512.868 560.996 486.147 369.355 80.5368 147.569 241.565 90.5582 151.007 523.007
internal_count=38318 27594 18658 8936 1507 6336 10724 769 8912 17151 2600 4747 6699 630 3825 1097 2728 2532 569 6069 2511 1887 2422 1763 354 738 896 290 606 1812
is_linear=0
shrinkage=0.015


Tree=22
num_leaves=31
num_cat=0
split_feature=16 1 10 1 16 12 9 13 7 1 16 14 1 10 9 7 1 1 6 8 14 3 5 8 12 24 2 5 5 8
split_gain=6443.03 1484.78 695.702 335.698 323.857 226.429 189.264 175.581 151.777 141.697 125.799 111.885 99.2399 88.8082 85.3157 80.4566 80.2594 75.756 80.5375 72.1006 125.255 108.575 76.6472 70.0722 64.8868 63.9475 62.9594 54.3994 53.5034 52.7973
threshold=0.095863986760377898 2021.5000000000002 3.7490442991256718 2023.5000000000002 0.081700336188077941 5.161802053451539 522.84759521484386 8069.3811035156259 0.59327471256256115 2023.5000000000002 0.27520242333412176 19698.540039062504 2024.5000000000002 2.8509725332260136 567.95800781250011 0.59923055768013012 2022.5000000000002 2020.5000000000002 1.4585658907890322 2.0385500192642216 15451.351074218752 1.2843066453933718 11.255122661590578 2.9021897315979008 4.256873846054078 43141.154296875007 5.7757425308227548 12.959992885589601 19.947079658508304 2.4608242511749272
decision_type=2 2 2 2 2 2 2 2 2 2 2 2 2 2 2 2 2 2 2 2 2 2 10 2 2 2 8 10 10 2
left_child=4 2 10 6 8 -4 26 -7 9 25 14 16 13 -5 23 -13 -6 18 -16 21 -21 22 -8 -2 -18 -1 -3 -17 -25 -22
right_child=1 3 5 12 11 7 19 -9 -10 -11 -12 15 -14 -15 17 27 24 -19 -20 20 29 -23 -24 28 -26 -27 -28 -29 -30 -31
leaf_value=0.0082387053123693307 -0.020562835393358885 0.0038967455596327521 -0.011857392075355865 0.014328246242041556 -0.0055796621059301553 0.020028332901560589 -0.018042480800036322 -0.0090205943251098816 0.020363284280455193 0.017095461015981819 -0.022763307049325738 -0.0018265537000701675 0.016643201170275866 -0.00069896600712064498 -0.017731935121263039 0.0072389711258856165 0.013297591381567582 -0.0033492600523491339 4.2880030229155939e-05 -0.010603123213585842 0.0014422660130456813 0.017021209738941907 0.0050427643743053401 -0.024298919467309648 0.00080412894051095599 -0.019846902403710051 -0.013167212962055167 0.018421369643499982 0.008182334104546763 0.020684001236991389
leaf_weight=505.87101428210735 839.75489370524883 53.302308663725853 155.81107148528099 129.43195901811123 179.7949360460043 160.21491076052189 46.236204609274864 65.298693016171455 1469.3150806427002 888.90858253836632 1412.5557400882244 76.865182489156723 220.67082940042019 274.77284367382526 414.27845892310143 149.1094381660223 173.33466383814812 160.97018919885159 66.155800491571426 250.37977415323257 174.59281025826931 118.4219329059124 102.73446291685104 16.032812744379044 203.50176772475243 18.119628474116325 494.66334235668182 299.32546785473824 34.533644676208496 38.671019852161407
leaf_count=1732 4764 209 767 417 781 445 239 299 4011 2580 8399 309 658 1118 2253 519 553 735 278 1200 686 360 381 93 791 94 2476 852 130 105
internal_value=-7.0439e-05 -0.011003 -0.0170494 -0.000437261 0.0143504 0.00200357 -0.00484075 0.0116016 0.0169781 0.0134461 -0.0195179 0.00734 0.00856572 0.00412434 -0.0165127 0.0123019 0.00264104 -0.0123 -0.0152821 0.000152825 -0.00341895 0.00634899 -0.0021603 -0.0195306 0.00657473 0.00723301 -0.0114986 0.0147293 -0.00227595 0.00500964
internal_weight=9193.63 5229.48 3325.61 1903.88 3964.15 381.325 1279 225.514 2882.21 1412.9 2944.28 1081.93 624.876 404.205 1531.73 525.3 556.631 641.404 480.434 731.036 463.644 267.393 148.971 890.321 376.836 523.991 547.966 448.435 50.5665 213.264
internal_count=38234 26012 18163 7849 12222 1511 5656 744 8417 4406 16652 3805 2193 1535 8253 1680 2125 3266 2531 2971 1991 980 620 4987 1344 1826 2685 1371 223 791
is_linear=0
shrinkage=0.015


Tree=23
num_leaves=31
num_cat=0
split_feature=0 1 10 0 40 1 14 12 7 4 6 1 14 14 7 3 6 5 11 7 17 1 3 28 5 40 11 16 4 3
split_gain=6553.95 1452.68 716.295 456.164 244.664 216.865 177.702 151.757 136.968 134.797 130.179 107.008 88.8636 121.225 105.61 86.6068 158.788 86.1821 71.2871 130.557 70.2271 68.7417 64.4687 64.0068 63.6783 62.5747 54.2403 53.6703 52.9971 52.983
threshold=62.500000000000007 2022.5000000000002 3.5941529273986821 70.500000000000014 0.70560535788536083 2024.5000000000002 6687.8222656250009 5.4879522323608407 0.61785250902175914 5.6137995719909677 1.4160492420196535 2023.5000000000002 19373.774414062504 5474.1552734375009 0.59923055768013012 1.4099150300025942 1.3657923340797427 14.14133930206299 0.51910907030105602 0.4045324325561524 66.634151458740249 2020.5000000000002 2.0712380409240727 2.055742740631104 12.744941711425783 0.51706048846244823 0.39715954661369329 0.14815749228000644 18.450851440429691 1.3788905143737795
decision_type=2 2 2 2 10 2 2 2 2 10 2 2 2 2 2 2 2 10 2 2 10 2 2 2 10 10 2 2 10 2
left_child=1 2 6 12 7 9 -1 23 11 17 -6 25 13 -2 -14 16 26 -3 -8 20 -20 -21 -17 -4 -16 28 -11 -9 -5 -15
right_child=3 5 4 8 10 -7 18 27 -10 15 -12 -13 14 29 24 22 -18 -19 19 21 -22 -23 -24 -25 -26 -27 -28 -29 -30 -31
leaf_value=-0.021469422806449218 0.023540546186626009 0.024169554901379099 -0.0066606040289312017 0.012191353151492092 -0.021802111787584382 0.017395241573752933 -0.019231183843085399 0.020947072122477157 0.020268303023640001 -0.00037916104866614819 0.015611882235331845 0.016937117849267627 -0.010434680905527306 0.006146099860663487 0.0029400297195721547 -0.015159522342950512 -0.010230697708196899 0.0046066585629654455 0.017055200481552655 -0.017732312705468638 -0.0086901371395824694 -0.0090229149753573937 0.0064632025783544315 -0.01799601585760633 0.017080586136982136 -0.0015482401337708507 0.014492378146580097 -0.0031407993792333497 -0.012708043679464332 -0.0061952451633309376
leaf_weight=1856.9043619632721 42.971154242753983 61.35639101266861 322.73313394188881 458.20104530453682 22.805796846747398 211.40268632769585 453.16843529045582 49.485345587134361 1566.9814675301313 89.997137039899826 185.42188107967377 1019.1759420931339 50.052675157785416 107.24558937549591 104.36574310064316 173.77561429142952 175.19978284835815 281.32401487231255 49.163460657000542 456.86232177913189 44.735538378357887 377.15946508944035 37.039711207151413 173.52087445557117 234.5363762229681 105.94771900773048 140.11637052893639 34.86279870569706 19.3318802267313 282.30733878910542
leaf_count=10888 111 159 1480 1460 128 620 2513 135 4288 374 568 2966 228 385 391 887 827 1063 157 2507 216 1817 139 916 687 422 448 149 91 1228
internal_value=6.70614e-05 -0.0110338 -0.0153084 0.0145222 -0.00248353 0.00367334 -0.0184305 -0.00748825 0.0171038 0.000632768 0.0114321 0.0139992 0.0045505 -0.00012338 0.00974521 -0.00355751 0.000495394 0.00816623 -0.0143323 -0.0119221 0.00478808 -0.0138098 -0.0113362 -0.0106528 0.012752 0.00884632 0.00868198 0.0110199 0.0111575 -0.0027843
internal_weight=9188.15 5197.04 4026.82 3991.12 788.83 1170.21 3237.99 580.602 3169.64 958.809 208.228 1602.66 821.479 432.524 388.955 616.129 405.313 342.68 1381.09 927.921 93.899 834.022 210.815 496.254 338.902 583.481 230.114 84.3481 477.533 389.553
internal_count=38248 25991 21474 12257 3376 4517 18098 2680 9227 3897 696 4939 3030 1724 1306 2675 1649 1222 7210 4697 373 4324 1026 2396 1078 1973 822 284 1551 1613
is_linear=0
shrinkage=0.015


Tree=24
num_leaves=31
num_cat=0
split_feature=0 0 6 0 25 3 5 40 3 6 20 6 8 9 5 15 6 4 33 4 19 2 6 3 16 4 6 3 2 24
split_gain=6496.41 1029.1 385.203 185.28 178.752 166.822 179.113 137.319 133.622 158.166 125.661 121.974 109.464 108.551 121.838 111.262 109.627 104.103 96.0291 87.1975 86.5241 91.364 78.5692 86.5027 76.8666 75.1182 68.5304 67.2612 63.7881 61.8398
threshold=66.500000000000014 44.500000000000007 1.5237852334976199 71.500000000000014 4.9774992465972909 1.3808933496475222 19.779337882995609 0.35322913527488714 1.412185847759247 1.3196280002593996 34.500000000000007 1.4160492420196535 2.022777915000916 626.31478881835949 12.084571838378908 1.8776887059211733 1.1541511416435244 5.8199148178100595 1.0487790703773501 18.450851440429691 43738.527343750007 11.438361644744875 1.0765707492828371 1.3579283952713015 0.29365882277488714 2.1346338987350468 1.3482770323753359 1.6131531000137331 19.003667831420902 35870.384765625007
decision_type=2 2 2 2 8 2 10 8 2 2 2 2 2 2 10 2 2 10 2 10 2 10 2 2 2 10 2 2 10 2
left_child=1 4 5 -2 10 13 12 -8 9 22 18 -9 27 14 16 -16 -3 -4 29 20 21 -5 -6 -24 25 -20 -23 -7 -22 -1
right_child=3 2 17 19 8 6 7 11 -10 -11 -12 -13 -14 -15 15 -17 -18 -19 24 -21 28 26 23 -25 -26 -27 -28 -29 -30 -31
leaf_value=0.0060229003969378397 0.0075705516692635734 0.025336895397995541 0.01952102575676096 0.0067335881383222256 0.014261040844712015 -0.0025592681718140148 0.010156941868606021 -0.016083728620983295 -0.020841581477557436 -0.017529552888971914 0.019066782024087486 0.0092462439193201958 -0.019891009135877272 -0.020596214472812489 -0.011360219964266158 0.0078436343689294238 -0.011058724784621091 -0.0028618826031797744 0.023092286340085342 -0.011783561359731331 0.015632525676025834 0.016222786784421211 -0.003133145915922262 -0.018572365518905534 -0.017585085495015772 -0.0098636030081445374 0.02097864414415257 -0.024454214861849944 -0.021779815081652169 -0.010735922843640619
leaf_weight=110.83088117837906 525.42796988785267 19.727619290351868 219.43474695086479 162.06244364380836 37.817704930901527 191.80213311314583 154.71406836807728 142.85208211839199 1190.2845269888639 829.89126048982143 31.738415315747261 60.133371070027351 313.16320876777172 50.765388354659081 77.19586156308651 521.18511667847633 199.78440599143505 58.829882428050041 15.314138680696486 22.469409584999084 18.326564222574234 1537.2976507395506 249.92028619349003 121.23658223450184 424.64073823392391 460.24471382796764 1279.007016479969 37.159691885113716 21.268316969275475 88.190071657299995
leaf_count=427 1827 48 611 563 130 846 547 734 6912 4581 91 208 1699 278 366 1873 951 248 41 104 54 4543 1128 681 2395 2249 3456 215 109 442
internal_value=-4.81956e-06 -0.0100717 -0.00159368 0.0158219 -0.0149435 -0.00417779 -0.00870146 -0.000450514 -0.0172403 -0.0137666 -0.00999904 -0.0085583 -0.0141313 0.000508428 0.00184087 0.00534932 -0.00769409 0.0147835 -0.0108543 0.0172445 0.0174647 0.0177578 -0.00610414 -0.00821346 -0.0129377 -0.00875905 0.018389 -0.00619857 -0.00442252 -0.0014015
internal_weight=9172.72 5606.86 2046.75 3565.86 3560.11 1768.48 899.825 357.7 2429.15 1238.87 1130.96 202.985 542.125 868.658 817.893 598.381 219.512 278.265 1099.22 3040.43 3017.96 2978.37 408.975 371.157 900.2 475.559 2816.3 228.962 39.5949 199.021
internal_count=38357 27701 8624 10656 19077 7765 4249 1489 13432 6520 5645 942 2760 3516 3238 2239 999 859 5554 8829 8725 8562 1939 1809 4685 2290 7999 1061 163 869
is_linear=0
shrinkage=0.015


Tree=25
num_leaves=31
num_cat=0
split_feature=1 16 14 1 16 12 13 9 12 5 7 1 16 14 15 7 15 19 14 1 14 9 7 17 5 9 3 3 39 19
split_gain=6193.1 1408.07 687.486 277.769 236.836 289.506 230.109 221.769 195.109 162.5 127.887 142.283 95.1872 92.3932 90.9294 78.8728 84.7983 76.6681 75.1427 71.7349 59.5616 70.8656 59.6342 58.9469 87.7867 57.3616 93.8009 66.6787 56.3856 54.7835
threshold=2021.5000000000002 0.089750234037637724 16090.121093750002 2023.5000000000002 0.2169119939208031 5.161802053451539 7934.3510742187509 522.84759521484386 5.1407127380371103 14.208593845367433 0.61533415317535411 2023.5000000000002 0.10834239050745965 20363.024414062504 2.7238432168960576 1.15439909696579 1.7290895581245425 35866.011718750007 20870.522460937504 2024.5000000000002 5288.5769042968759 522.84759521484386 0.62854328751564037 69.524177551269545 19.947079658508304 311.11518859863287 1.5540081262588503 1.3851069808006289 0.039326405152678497 23543.423828125004
decision_type=2 2 2 2 2 2 2 2 2 10 2 2 2 2 2 2 2 2 2 2 2 2 2 10 10 2 2 2 2 2
left_child=2 10 4 7 5 14 -7 -3 13 -10 11 17 -9 28 25 16 -14 -2 -12 20 29 22 -22 24 -16 26 -1 -27 -4 -5
right_child=1 3 8 19 -6 6 -8 12 9 -11 18 -13 15 -15 23 -17 -18 -19 -20 -21 21 -23 -24 -25 -26 27 -28 -29 -30 -31
leaf_value=0.020403637859120666 0.0086025273507280911 -0.0099401240265853709 0.0042305861070252304 -0.0028158598250692226 -0.02158615366333427 0.016631108183363913 -0.015705416922200212 0.0081058589630567078 -0.01078579516672106 0.021748753009892256 0.011034657626524572 0.016373530175717455 0.018963900289528979 0.0041895606812990356 -0.022753942074319557 0.014868300324694292 -0.0057102334975548301 -0.012715223291292863 0.020275273630618332 0.014765869705751519 0.0028520714935008303 0.0092208804927469325 -0.012802390129043533 -0.017574870108238584 0.011335241909725713 -0.013669386333751182 -0.018323421517318746 -0.021897909279214849 -0.017653571568315762 0.021926823555949999
leaf_weight=22.440885007381439 544.3460046350956 614.93968325853348 32.418070062994957 27.160659953951836 1761.1748426407576 119.28600588440895 83.423159882426262 333.32579600811005 45.341054469347 137.61327141523361 234.78304709494114 1056.0890651792288 32.842858299612999 112.83770069479942 21.950728625059128 54.656104743480682 452.9596198797226 39.994403123855591 1452.1496567577124 245.24635173380375 140.3906827121973 186.23744933307171 88.513624712824821 49.808750748634338 66.271891474723816 380.38342069089413 34.823710635304451 562.27874268591404 133.22844931483269 73.1173175573349
leaf_count=71 1850 2973 129 115 10524 369 432 1170 212 366 767 3111 94 422 125 169 2027 186 3986 755 545 639 423 271 234 1995 196 3256 697 204
internal_value=2.14385e-05 0.00989104 -0.015423 0.000721871 -0.0179637 -0.0131928 0.00329913 -0.00304439 0.00165108 0.0136576 0.0160871 0.0130853 0.00180982 -0.00624259 -0.0161335 -0.00207394 -0.00400753 0.00712295 0.0189968 0.00809233 0.00489316 0.00236549 -0.0032117 -0.00465914 0.00269153 -0.0177095 -0.00302335 -0.0185951 -0.0133529 0.0152263
internal_weight=9140.03 5576.75 3563.28 2249.39 3101.84 1340.67 202.709 1488.72 461.439 182.954 3327.36 1640.43 873.784 278.484 1137.96 540.459 485.802 584.34 1686.93 760.666 515.42 415.142 228.904 138.031 88.2226 999.927 57.2646 942.662 165.647 100.278
internal_count=38313 19014 19299 9114 17473 6949 801 6433 1826 578 9900 5147 3460 1248 6148 2290 2121 2036 4753 2681 1926 1607 968 630 359 5518 267 5251 826 319
is_linear=0
shrinkage=0.015


Tree=26
num_leaves=31
num_cat=0
split_feature=0 1 10 1 11 4 7 14 1 0 4 0 15 7 7 2 4 35 15 32 0 11 15 4 23 2 2 3 0 3
split_gain=6274.35 1632.15 656.152 244.723 240.114 206.636 146.214 134.039 125.93 122.711 101.338 97.9998 102.319 89.2723 79.237 72.1073 70.4158 64.3879 63.6255 62.4376 58.7613 55.3809 60.8006 54.855 94.2188 71.6521 53.9003 68.7887 51.9751 50.7525
threshold=67.500000000000014 2021.5000000000002 3.838872075080872 2023.5000000000002 0.42916174232959753 5.9814541339874276 0.61785250902175914 6033.8168945312509 2023.5000000000002 48.500000000000007 4.3790819644927987 47.500000000000007 1.7290895581245425 0.6700345277786256 0.65572205185890209 11.705178737640383 6.8048055171966562 5.6442265972123102e-08 2.8510490655899052 2.9748308658599858 72.500000000000014 0.92365968227386486 1.8808610439300539 5.1579840183258066 6.0958307845915285e-11 16.757367134094242 30.803550720214847 1.3961413502693178 47.500000000000007 1.5670273900032046
decision_type=2 2 2 2 2 10 2 2 2 2 10 2 2 2 2 10 8 2 2 2 2 2 2 10 2 10 10 2 2 2
left_child=1 2 7 4 18 13 8 -1 15 -5 14 12 -6 -4 -9 -2 -14 26 29 -12 -8 22 -13 25 -25 -11 27 -17 -21 -3
right_child=6 3 5 9 11 -7 20 10 -10 23 19 21 16 -15 -16 17 -18 -19 -20 28 -22 -23 -24 24 -26 -27 -28 -29 -30 -31
leaf_value=-0.021562154104540151 -0.010118930192232822 -0.010724761522360291 -0.011911526357107578 0.013509644561006923 0.018391306531552822 -0.012238379571268939 0.012575493338679227 -0.016827372459115621 0.016038525165661399 0.014961857589093651 -0.01741679713005034 -0.0072891757659171502 -0.0022364919307139692 0.016835120628096164 0.0041067682173473929 0.020043135758845639 -0.015195660588686667 -0.0083162894638165175 0.0094270276775586283 -0.014230681390185476 0.02017917345570679 -0.020531908266587337 0.0068235807258346919 0.0094518572505874077 -0.0084643022619100058 -0.016708473535924587 -0.004973814751979856 0.0082052226951363286 0.012022369341071773 -0.022346281208385593
leaf_weight=1585.7674161940813 46.765837445855141 284.9593712836504 27.39707724750042 351.76270118355751 37.430213183164597 112.19531571865082 280.17000758647919 66.73510168492794 1041.3923777192831 100.177983507514 1234.574661180377 77.998643293976784 243.37039574980736 179.02813957631588 101.35362030565739 157.3389750123024 154.30875776708126 43.961020231246948 26.490882873535156 37.060588270425797 1458.9676887243986 18.907139822840691 531.36266408860683 101.24061159789562 186.18379366397858 18.343496739864349 46.75589445233345 379.88232946395874 29.899794042110443 123.01831771433353
leaf_count=9559 209 1391 135 1133 109 550 886 365 3086 307 6841 347 1045 530 407 433 792 194 92 199 4019 102 1932 350 834 90 194 1299 101 705
internal_value=-2.06626e-05 -0.00978663 -0.0163891 9.07327e-05 -0.00342177 0.00407826 0.0158886 -0.0185249 0.0127645 0.00703452 -0.0152357 0.000416557 -0.00504683 0.0129741 -0.00422714 0.00769365 -0.00729289 0.0090362 -0.0128066 -0.0166516 0.0189623 0.00420662 0.00500503 0.00140074 -0.0021345 0.00995596 0.0103572 0.0117025 -0.00246011 -0.0142732
internal_weight=9084.8 5629.57 3374.01 2255.55 1497.85 318.621 3455.23 3055.39 1716.1 757.709 1469.62 1063.38 435.109 206.425 168.089 674.704 397.679 627.938 434.469 1301.54 1739.14 628.268 609.361 405.946 287.424 118.521 583.977 537.221 66.9604 407.978
internal_count=38236 27916 18687 9229 6515 1215 10320 17472 5415 2714 7913 4327 1946 665 772 2329 1837 2120 2188 7141 4905 2381 2279 1581 1184 397 1926 1732 300 2096
is_linear=0
shrinkage=0.015


Tree=27
num_leaves=31
num_cat=0
split_feature=16 1 14 16 6 13 1 12 9 1 14 5 1 20 3 3 36 5 14 11 16 5 24 35 1 29 5 3 12 9
split_gain=5699.76 1361.38 555.408 394.165 322.082 279.721 206.638 129.149 147.232 123.459 114.234 106.135 99.5623 94.8003 111.85 84.5393 121.61 102.504 80.7471 79.4271 74.6286 73.9292 61.3687 60.5721 58.28 74.7217 56.0562 64.3414 55.1753 49.4958
threshold=0.098366580903530135 2022.5000000000002 9696.7978515625018 0.082225751131773009 1.4371470212936404 8197.6635742187518 2024.5000000000002 4.666438341140748 626.31478881835949 2021.5000000000002 19373.774414062504 25.530385971069339 2023.5000000000002 27.500000000000004 1.1518775820732119 1.4186939001083376 4.4229366779327401 18.220675468444828 3763.1840820312505 0.31843157112598425 0.24474429339170459 11.959416389465334 26692.384765625004 5.6442265972123102e-08 2023.5000000000002 0.25547227263450628 14.413625717163088 1.2711320519447329 5.0032711029052743 567.95800781250011
decision_type=2 2 2 2 2 2 2 2 2 2 2 10 2 2 2 2 2 10 2 2 2 10 2 2 2 10 10 2 2 2
left_child=3 2 20 7 9 11 15 8 12 29 18 -6 23 14 -7 16 -3 28 -5 -18 -2 -21 -12 -1 -20 -26 27 -11 -17 -4
right_child=1 6 4 10 5 13 -8 -9 -10 26 22 -13 -14 -15 -16 17 19 -19 24 21 -22 -23 -24 -25 25 -27 -28 -29 -30 -31
leaf_value=0.009925287824471175 -0.01569544982822834 0.012749168762162817 -0.022485428652766148 0.020709145714632796 0.016443870262231215 0.015461978265772317 0.017205224818839217 0.019740209693157845 -0.026446693095510846 -0.012453333706327617 -0.002353138512714847 -0.016369039627484039 0.016566282579629405 0.016067379852444393 -0.01617524664511243 -0.018661412522589627 -0.018903900673137245 0.002180176260358528 -0.0045121505066358352 -0.0082040508688930418 -0.021161537682776541 0.0064614412860203646 0.012433433296899216 -0.012003571141856701 0.013172982295442295 -0.0035106971852939487 -0.011467759699204728 0.009555025479457047 0.013800959563161293 -0.01337148077763752
